{"learner":{"attributes":{"best_iteration":"199","best_score":"0.29328454288800526"},"feature_names":["domain_length","domain_name_length","subdomain_length","subdomain_count","path_depth","digit_count","digit_ratio","hyphen_count","hyphen_ratio","underscore_count","consonant_ratio","vowel_ratio","entropy","domain_name_entropy","subdomain_entropy","ad_keyword_count","has_ad_keyword","keyword_with_boundary","has_ad_bigram","has_ad_trigram","tld_suspicious","tld_length","is_commercial_tld","has_multiple_hyphens","has_number_sequence","starts_with_number","has_random_pattern","max_consonant_sequence","max_digit_sequence","unique_char_ratio","has_cdn_pattern","has_tracking_pattern","has_geo_identifier","subdomain_looks_random","numeric_segments","tracker_keyword_count","cdn_keyword_count","suspicious_word_count","legit_pattern_count","matches_ad_network","subdomain_to_domain_ratio","domain_to_full_ratio","tld_to_full_ratio","uppercase_count","special_char_count","alphanumeric_ratio","max_char_repetition","has_repeated_bigram","has_repeated_trigram","lexical_diversity","vowel_consonant_ratio","subdomain_levels","avg_subdomain_length","subdomain_has_number","subdomain_all_numeric","domain_name_has_number","domain_name_starts_with_ad","domain_name_ends_with_ad","tld_is_country_code","tld_is_new_gtld","ad_heuristic_score","randomness_score","has_number_in_subdomain_start","has_hyphen_after_keyword","part_length_variance","looks_like_compound_word","has_port_like_number","has_year_like_number"],"feature_types":["int","int","int","int","int","int","float","int","float","int","float","float","float","float","float","int","int","int","int","int","int","int","int","int","int","int","int","int","int","float","int","int","int","int","int","int","int","int","int","int","float","float","float","int","int","float","int","int","int","float","float","int","float","int","int","int","int","int","int","int","int","int","int","int","float","int","int","int"],"gradient_booster":{"model":{"cats":{"enc":[],"feature_segments":[],"sorted_idx":[]},"gbtree_model_param":{"num_parallel_tree":"1","num_trees":"200"},"iteration_indptr":[0,1,2,3,4,5,6,7,8,9,10,11,12,13,14,15,16,17,18,19,20,21,22,23,24,25,26,27,28,29,30,31,32,33,34,35,36,37,38,39,40,41,42,43,44,45,46,47,48,49,50,51,52,53,54,55,56,57,58,59,60,61,62,63,64,65,66,67,68,69,70,71,72,73,74,75,76,77,78,79,80,81,82,83,84,85,86,87,88,89,90,91,92,93,94,95,96,97,98,99,100,101,102,103,104,105,106,107,108,109,110,111,112,113,114,115,116,117,118,119,120,121,122,123,124,125,126,127,128,129,130,131,132,133,134,135,136,137,138,139,140,141,142,143,144,145,146,147,148,149,150,151,152,153,154,155,156,157,158,159,160,161,162,163,164,165,166,167,168,169,170,171,172,173,174,175,176,177,178,179,180,181,182,183,184,185,186,187,188,189,190,191,192,193,194,195,196,197,198,199,200],"tree_info":[0,0,0,0,0,0,0,0,0,0,0,0,0,0,0,0,0,0,0,0,0,0,0,0,0,0,0,0,0,0,0,0,0,0,0,0,0,0,0,0,0,0,0,0,0,0,0,0,0,0,0,0,0,0,0,0,0,0,0,0,0,0,0,0,0,0,0,0,0,0,0,0,0,0,0,0,0,0,0,0,0,0,0,0,0,0,0,0,0,0,0,0,0,0,0,0,0,0,0,0,0,0,0,0,0,0,0,0,0,0,0,0,0,0,0,0,0,0,0,0,0,0,0,0,0,0,0,0,0,0,0,0,0,0,0,0,0,0,0,0,0,0,0,0,0,0,0,0,0,0,0,0,0,0,0,0,0,0,0,0,0,0,0,0,0,0,0,0,0,0,0,0,0,0,0,0,0,0,0,0,0,0,0,0,0,0,0,0,0,0,0,0,0,0,0,0,0,0,0,0],"trees":[{"base_weights":[1.1405374E-2,-8.5898083E-1,9.998329E-2,-1.364336E0,-2.3735527E-2,-1.5772449E0,-1.0990143E0,-3.4728184E-1,8.588175E-1,-1.6106293E0,-6.663099E-1,-1.1372705E0,3.1874713E-1,-1.7625006E0,-2.1403271E-1,5.598893E-3,1.2450697E0,-1.8517994E0,-1.5132514E0,-8.646247E-1,6.2738496E-1,-1.2461934E0,-8.1965137E-1,4.174915E-1,-8.062556E-2,-1.7687175E0,-2.8235778E-2,-3.7363878E-1,8.4579206E-1,-1.3779435E0,1.6662732E-1,-2.9795972E-1,1.3350927E0,-1.8960911E0,-1.4625837E0,-1.5639905E0,-1.099752E0,-1.1527733E0,-2.1025138E-1,1.1199883E0,3.1156683E-1,-1.175053E0,-1.740373E0,3.4772938E-1,-9.513462E-1,5.7380563E-1,-8.1127954E-1,-1.7750126E0,-2.8235778E-2,-5.646515E-1,2.4343897E-1,-1.3105383E0,9.0252614E-1,-1.7706285E0,-3.0844575E-1,-8.591154E-1,3.4996378E-1,-4.4930825E-1,4.1966033E-1,1.3644102E0,-1.3687619E0,-1.903831E0,-8.322699E-1,-1.4930303E0,-6.2106395E-1,-1.5721081E0,-6.6438013E-1,-6.4943427E-1,-1.4122635E0,-1.2056818E0,3.2380443E-2,-2.1973222E-2,-6.619105E-2,7.095181E-2,4.7053993E-3,5.011928E-1,-3.6250476E-2,-1.225111E0,-6.096265E-1,-1.8512594E0,-1.1020774E0,-5.725123E-1,6.629185E-1,-6.905267E-1,-1.0382357E0,1.1505759E0,3.1144583E-1,1.119947E-2,-1.2720116E0,-8.937036E-2,-1.1622758E0,-7.0906425E-1,-2.8576094E-1,1.2541194E-1,1.1865753E0,-4.8751107E-1,-8.708391E-2,9.783417E-1,-5.6057566E-1,-1.0122565E0,-9.74705E-2,3.7691772E-2,-7.475528E-1,-1.0812624E0,-6.157192E-1,-1.1147924E-1,6.012984E-1,-1.7754044E-1,-8.691031E-1,5.142806E-2,8.18067E-2,1.2489461E-1,1.4243063E0,-0E0,-8.4231354E-2,-9.651222E-2,-8.921396E-2,-7.095295E-2,1.5832808E-2,-7.85047E-2,-6.316301E-2,-4.631629E-2,-1.2174435E-2,-7.93328E-2,-6.0678136E-2,3.1028602E-3,-4.9833946E-2,1.2730651E-2,-7.3214196E-2,-7.1542546E-2,-3.4787827E-3,-6.342255E-2,-2.1627257E-3,-7.542994E-3,6.4347304E-2,-1.00004915E-2,3.3042885E-2,-6.2742546E-2,-2.5401324E-2,-3.9056186E-2,1.803047E-2,-9.303434E-2,-2.9000506E-2,-3.8796917E-2,-8.094549E-2,-8.000051E-2,-2.0140475E-2,2.122278E-2,8.021679E-2,3.2008116E-3,-5.9687E-2,-5.4323178E-2,-2.0600623E-2,3.6711734E-2,7.009841E-2,2.8774083E-2,-9.482095E-3,-2.1111604E-2,-7.722279E-2,-6.5366425E-2,-2.3750475E-2,-2.8142592E-2,-4.4080704E-2,8.278723E-3,-1.977863E-2,-3.021189E-2,9.008093E-3,6.6058695E-2,-2.7692875E-2,-4.8750475E-2,-0E0,4.294775E-2,8.12013E-2,-4.7033574E-2,5.0903233E-3,-5.9429135E-2,-2.1111604E-2,-6.1250474E-2,-2.612303E-2,-5.9875615E-2,-2.1667229E-2,3.1994693E-3,-3.517709E-2,-5.7222832E-2,3.0643877E-3,1.0708756E-2,3.8914263E-2,2.6382746E-3,-5.2105825E-2,-5.204606E-2,-6.9236117E-3,-1.2174435E-2,1.919947E-2,-2.7263775E-2,8.2890965E-2,6.0805153E-2,8.28643E-2],"categories":[],"categories_nodes":[],"categories_segments":[],"categories_sizes":[],"default_left":[0,0,0,0,0,0,0,0,0,0,0,0,0,0,0,0,0,0,0,0,0,0,0,0,0,0,0,0,0,0,0,0,0,0,0,0,0,0,0,0,0,0,0,0,0,0,0,0,0,0,0,0,0,0,0,0,0,0,0,0,0,0,0,0,0,0,0,0,0,0,0,0,0,0,0,0,0,0,0,0,0,0,0,0,0,0,0,0,0,0,0,0,0,0,0,0,0,0,0,0,0,0,0,0,0,0,0,0,0,0,0,0,0,0,0,0,0,0,0,0,0,0,0,0,0,0,0,0,0,0,0,0,0,0,0,0,0,0,0,0,0,0,0,0,0,0,0,0,0,0,0,0,0,0,0,0,0,0,0,0,0,0,0,0,0,0,0,0,0,0,0,0,0,0,0,0,0,0,0,0,0,0,0,0,0,0,0,0,0,0,0,0,0,0,0,0,0],"id":0,"left_children":[1,3,-1,5,7,9,11,13,15,17,19,21,23,25,27,29,31,33,35,37,39,41,43,45,-1,47,-1,49,51,53,55,57,59,61,63,65,67,69,71,73,75,77,79,81,83,85,87,89,-1,91,93,95,97,99,101,103,105,107,109,111,113,115,117,119,121,123,125,127,129,131,-1,133,-1,-1,-1,135,-1,137,139,141,143,145,147,149,151,153,155,-1,157,-1,159,161,163,165,167,169,-1,171,173,175,-1,-1,177,179,181,183,185,187,189,-1,191,193,195,-1,-1,-1,-1,-1,-1,-1,-1,-1,-1,-1,-1,-1,-1,-1,-1,-1,-1,-1,-1,-1,-1,-1,-1,-1,-1,-1,-1,-1,-1,-1,-1,-1,-1,-1,-1,-1,-1,-1,-1,-1,-1,-1,-1,-1,-1,-1,-1,-1,-1,-1,-1,-1,-1,-1,-1,-1,-1,-1,-1,-1,-1,-1,-1,-1,-1,-1,-1,-1,-1,-1,-1,-1,-1,-1,-1,-1,-1,-1,-1,-1,-1,-1,-1],"loss_changes":[5.4776906E4,9.292366E3,0E0,7.728203E2,2.3702854E3,2.3004297E2,3.3183984E2,1.144887E3,7.3371045E2,1.6918164E2,7.002949E1,2.0460938E2,3.1304222E1,2.6585693E0,9.3954126E2,1.5494728E2,2.1341284E2,3.3191895E1,1.07799805E2,4.3979294E1,5.18631E0,1.5334375E2,2.3445734E2,3.006923E1,0E0,2.6993408E0,0E0,5.690972E2,9.008136E1,2.9694199E1,1.175027E2,9.450587E0,1.166897E2,1.36796875E1,4.491638E0,3.275E1,7.9866455E1,1.6363281E1,1.5193988E1,3.9334698E0,5.00933E0,1.0872754E2,3.694629E1,4.534635E1,3.0123657E1,2.030214E1,8.856144E0,1.5463867E0,0E0,1.4816272E2,1.2678673E2,5.6699524E0,7.923663E1,4.8825073E0,1.0241849E1,4.287651E0,6.155462E1,7.8411922E0,2.9420404E0,1.06093506E2,6.917444E0,2.097168E0,1.1009343E1,1.4737854E0,7.524321E-1,2.1870117E1,1.0655962E1,1.7563535E2,8.204651E0,1.1397095E1,0E0,1.0835307E1,0E0,0E0,0E0,2.5013795E0,0E0,7.506348E1,5.311183E1,4.324585E0,1.27897415E1,6.1299925E0,2.5157356E1,1.3127945E2,3.0336304E1,3.205265E0,1.28490095E1,0E0,2.0451794E0,0E0,5.2166367E-1,6.0608887E1,6.251168E1,4.0643894E1,3.050093E1,1.9012377E0,0E0,5.035132E1,9.11744E0,6.1151123E-1,0E0,0E0,8.2417774E-1,2.9333572E0,2.9593525E0,3.3640533E1,2.325209E1,9.014629E0,3.1901512E0,0E0,1.1888322E0,7.0102516E1,6.4018555E1,0E0,0E0,0E0,0E0,0E0,0E0,0E0,0E0,0E0,0E0,0E0,0E0,0E0,0E0,0E0,0E0,0E0,0E0,0E0,0E0,0E0,0E0,0E0,0E0,0E0,0E0,0E0,0E0,0E0,0E0,0E0,0E0,0E0,0E0,0E0,0E0,0E0,0E0,0E0,0E0,0E0,0E0,0E0,0E0,0E0,0E0,0E0,0E0,0E0,0E0,0E0,0E0,0E0,0E0,0E0,0E0,0E0,0E0,0E0,0E0,0E0,0E0,0E0,0E0,0E0,0E0,0E0,0E0,0E0,0E0,0E0,0E0,0E0,0E0,0E0,0E0,0E0,0E0,0E0,0E0,0E0,0E0,0E0,0E0],"parents":[2147483647,0,0,1,1,3,3,4,4,5,5,6,6,7,7,8,8,9,9,10,10,11,11,12,12,13,13,14,14,15,15,16,16,17,17,18,18,19,19,20,20,21,21,22,22,23,23,25,25,27,27,28,28,29,29,30,30,31,31,32,32,33,33,34,34,35,35,36,36,37,37,38,38,39,39,40,40,41,41,42,42,43,43,44,44,45,45,46,46,47,47,49,49,50,50,51,51,52,52,53,53,54,54,55,55,56,56,57,57,58,58,59,59,60,60,61,61,62,62,63,63,64,64,65,65,66,66,67,67,68,68,69,69,71,71,75,75,77,77,78,78,79,79,80,80,81,81,82,82,83,83,84,84,85,85,86,86,88,88,90,90,91,91,92,92,93,93,94,94,95,95,97,97,98,98,99,99,102,102,103,103,104,104,105,105,106,106,107,107,108,108,110,110,111,111,112,112],"right_children":[2,4,-1,6,8,10,12,14,16,18,20,22,24,26,28,30,32,34,36,38,40,42,44,46,-1,48,-1,50,52,54,56,58,60,62,64,66,68,70,72,74,76,78,80,82,84,86,88,90,-1,92,94,96,98,100,102,104,106,108,110,112,114,116,118,120,122,124,126,128,130,132,-1,134,-1,-1,-1,136,-1,138,140,142,144,146,148,150,152,154,156,-1,158,-1,160,162,164,166,168,170,-1,172,174,176,-1,-1,178,180,182,184,186,188,190,-1,192,194,196,-1,-1,-1,-1,-1,-1,-1,-1,-1,-1,-1,-1,-1,-1,-1,-1,-1,-1,-1,-1,-1,-1,-1,-1,-1,-1,-1,-1,-1,-1,-1,-1,-1,-1,-1,-1,-1,-1,-1,-1,-1,-1,-1,-1,-1,-1,-1,-1,-1,-1,-1,-1,-1,-1,-1,-1,-1,-1,-1,-1,-1,-1,-1,-1,-1,-1,-1,-1,-1,-1,-1,-1,-1,-1,-1,-1,-1,-1,-1,-1,-1,-1,-1,-1],"split_conditions":[1E0,1.5E1,9.998329E-2,1.2E1,1E0,1E0,1E0,9.2957747E-1,1.8E1,5E0,2E0,9.245283E-1,8.8235295E-1,1E0,4E0,2.631579E-1,3E0,9.52381E-2,2.5641026E-2,1E0,6.086956E-1,5E0,1E1,7.4074075E-2,-8.062556E-2,1E0,-2.8235778E-2,2E1,8E0,3.0930693E0,3E0,8.888889E-1,3E0,1E0,2E0,1E0,1E0,1E0,1.0769231E0,3E0,1E0,1E0,8.5915494E-1,9E0,1E0,1E0,2.1052632E-1,9.183673E-1,-2.8235778E-2,3.5216405E0,2.5641026E-2,8E0,5.5555556E-2,5E0,1E0,3.188722E0,1.2E1,8.958333E-1,6.1538464E-1,7.5E-1,1E0,5.263158E-1,1.1E1,2.947703E0,1E0,4E0,8.235294E-1,1E0,5.555556E-1,1E0,3.2380443E-2,1E0,-6.619105E-2,7.095181E-2,4.7053993E-3,3.478261E-1,-3.6250476E-2,4E0,1E0,1E0,6E0,6E0,5E0,1.1E1,1E0,7E0,6.7741936E-1,1.119947E-2,1.5E-1,-8.937036E-2,3.4841838E0,6.166667E-1,1E0,3E0,3E0,5.2E-1,-8.708391E-2,5E0,1E0,3.3787835E0,-9.74705E-2,3.7691772E-2,7.368421E-1,1E0,3.2389011E0,8.245614E-1,3.085055E0,9.677419E-2,3.821928E0,5.142806E-2,6.8E-1,1E0,8.181818E-1,-0E0,-8.4231354E-2,-9.651222E-2,-8.921396E-2,-7.095295E-2,1.5832808E-2,-7.85047E-2,-6.316301E-2,-4.631629E-2,-1.2174435E-2,-7.93328E-2,-6.0678136E-2,3.1028602E-3,-4.9833946E-2,1.2730651E-2,-7.3214196E-2,-7.1542546E-2,-3.4787827E-3,-6.342255E-2,-2.1627257E-3,-7.542994E-3,6.4347304E-2,-1.00004915E-2,3.3042885E-2,-6.2742546E-2,-2.5401324E-2,-3.9056186E-2,1.803047E-2,-9.303434E-2,-2.9000506E-2,-3.8796917E-2,-8.094549E-2,-8.000051E-2,-2.0140475E-2,2.122278E-2,8.021679E-2,3.2008116E-3,-5.9687E-2,-5.4323178E-2,-2.0600623E-2,3.6711734E-2,7.009841E-2,2.8774083E-2,-9.482095E-3,-2.1111604E-2,-7.722279E-2,-6.5366425E-2,-2.3750475E-2,-2.8142592E-2,-4.4080704E-2,8.278723E-3,-1.977863E-2,-3.021189E-2,9.008093E-3,6.6058695E-2,-2.7692875E-2,-4.8750475E-2,-0E0,4.294775E-2,8.12013E-2,-4.7033574E-2,5.0903233E-3,-5.9429135E-2,-2.1111604E-2,-6.1250474E-2,-2.612303E-2,-5.9875615E-2,-2.1667229E-2,3.1994693E-3,-3.517709E-2,-5.7222832E-2,3.0643877E-3,1.0708756E-2,3.8914263E-2,2.6382746E-3,-5.2105825E-2,-5.204606E-2,-6.9236117E-3,-1.2174435E-2,1.919947E-2,-2.7263775E-2,8.2890965E-2,6.0805153E-2,8.28643E-2],"split_indices":[2,0,0,0,7,15,20,45,0,1,15,45,10,35,21,50,21,6,6,56,41,21,1,6,0,37,0,0,1,13,21,50,34,20,34,20,22,20,50,27,17,60,45,1,22,59,50,45,0,12,6,21,6,27,22,13,1,45,29,41,22,41,0,12,22,21,29,58,6,7,0,17,0,0,0,50,0,21,7,37,21,1,27,1,15,1,10,0,6,0,13,10,22,21,61,50,0,27,24,12,0,0,29,60,13,45,13,8,12,0,29,20,41,0,0,0,0,0,0,0,0,0,0,0,0,0,0,0,0,0,0,0,0,0,0,0,0,0,0,0,0,0,0,0,0,0,0,0,0,0,0,0,0,0,0,0,0,0,0,0,0,0,0,0,0,0,0,0,0,0,0,0,0,0,0,0,0,0,0,0,0,0,0,0,0,0,0,0,0,0,0,0,0,0,0,0,0],"split_type":[0,0,0,0,0,0,0,0,0,0,0,0,0,0,0,0,0,0,0,0,0,0,0,0,0,0,0,0,0,0,0,0,0,0,0,0,0,0,0,0,0,0,0,0,0,0,0,0,0,0,0,0,0,0,0,0,0,0,0,0,0,0,0,0,0,0,0,0,0,0,0,0,0,0,0,0,0,0,0,0,0,0,0,0,0,0,0,0,0,0,0,0,0,0,0,0,0,0,0,0,0,0,0,0,0,0,0,0,0,0,0,0,0,0,0,0,0,0,0,0,0,0,0,0,0,0,0,0,0,0,0,0,0,0,0,0,0,0,0,0,0,0,0,0,0,0,0,0,0,0,0,0,0,0,0,0,0,0,0,0,0,0,0,0,0,0,0,0,0,0,0,0,0,0,0,0,0,0,0,0,0,0,0,0,0,0,0,0,0,0,0,0,0,0,0,0,0],"sum_hessian":[3.165075E4,2.201425E4,9.6365E3,1.371525E4,8.299E3,7.60625E3,6.109E3,6.07325E3,2.22575E3,7.3365E3,2.6975E2,5.94875E3,1.6025E2,5.215E2,5.55175E3,6.94E2,1.53175E3,2.10475E3,5.23175E3,2.3425E2,3.55E1,4.42725E3,1.5215E3,1.5325E2,7E0,5.1825E2,3.25E0,4.82575E3,7.26E2,7.15E1,6.225E2,8.425E1,1.4475E3,1.886E3,2.1875E2,4.65725E3,5.745E2,1.62E2,7.225E1,1.275E1,2.275E1,3.87325E3,5.54E2,1.54E2,1.3675E3,1.365E2,1.675E1,5.15E2,3.25E0,3.68525E3,1.1405E3,1.8E1,7.08E2,5.175E1,1.975E1,9.375E1,5.2875E2,7E1,1.425E1,1.4325E3,1.5E1,1.8715E3,1.45E1,2.1025E2,8.5E0,4.61475E3,4.25E1,2.3675E2,3.3775E2,1.5775E2,4.25E0,6.275E1,9.5E0,9.5E0,3.25E0,1.975E1,3E0,3.557E3,3.1625E2,4.7025E2,8.375E1,3.9E1,1.15E2,3.4425E2,1.02325E3,4.15E1,9.5E1,5.25E0,1.15E1,5.0275E2,1.225E1,2.42675E3,1.2585E3,1.01475E3,1.2575E2,7E0,1.1E1,6.735E2,3.45E1,1.125E1,4.05E1,5.5E0,1.425E1,4.7E1,4.675E1,1.865E2,3.4225E2,4.35E1,2.65E1,4.25E0,1E1,6.625E1,1.36625E3,3E0,1.2E1,1.51975E3,3.5175E2,9.5E0,5E0,1.5275E2,5.75E1,3.75E0,4.75E0,4.43125E3,1.835E2,1.35E1,2.9E1,1.125E2,1.2425E2,3.33E2,4.75E0,1.495E2,8.25E0,5.8E1,4.75E0,3.5E0,1.625E1,3.4145E3,1.425E2,2.69E2,4.725E1,4.6625E2,4E0,5.3E1,3.075E1,4.25E0,3.475E1,9.3E1,2.2E1,1.38E2,2.0625E2,9.4925E2,7.4E1,1.725E1,2.425E1,6.225E1,3.275E1,3.5E0,8E0,9.25E0,3E0,1.31625E3,1.1105E3,2.46E2,1.0125E3,7E1,9.4475E2,1.17E2,8.75E0,3E0,4E0,5.705E2,1.03E2,2.175E1,1.275E1,7.75E0,3.5E0,3E0,1.125E1,3.9E1,8E0,5.25E0,4.15E1,2.6E1,1.605E2,1.0825E2,2.34E2,3.5E1,8.5E0,2.1E1,5.5E0,4.75E0,5.25E0,4.65E1,1.975E1,7.25E2,6.4125E2],"tree_param":{"num_deleted":"0","num_feature":"68","num_nodes":"197","size_leaf_vector":"1"}},{"base_weights":[-5.2193385E-3,-8.321922E-1,9.522639E-2,-1.3076947E0,-3.4578472E-2,-1.5169878E0,-1.0470551E0,-3.4142232E-1,8.127491E-1,-1.5474225E0,-6.662735E-1,-1.0824201E0,2.759651E-1,-4.8418078E-1,1.8118747E-1,-7.5344555E-3,1.1820742E0,-1.7641242E0,-1.4605756E0,-8.601062E-1,5.628311E-1,-1.2019126E0,-8.1265455E-1,4.4785872E-1,-9.960833E-1,-5.345463E-1,9.2955726E-1,6.6162586E-2,1.2398767E0,-1.2417883E0,1.3710828E-1,1.2681193E0,-2.6335102E-1,-1.8037937E0,-1.4159766E0,-1.5074604E0,-1.0836152E0,-1.1003851E0,-2.881356E-1,-1.6920082E-2,7.01175E-1,-1.2434196E0,-7.169015E-1,-1.4919248E0,-7.4016625E-1,6.1754364E-1,-7.2464067E-1,1.2802106E-2,-8.2478896E-2,-4.505027E-1,-1.0270486E0,1.043846E0,-2.2975285E-1,3.091732E-2,1.5082687E0,1.3302146E0,-3.715063E-1,-1.3951445E0,7.5222135E-2,3.0873698E-1,-7.9538023E-1,1.299869E0,-1.4085468E0,-3.6307645E-1,6.2199008E-2,-1.8100015E0,-9.396608E-1,-1.4328235E0,-3.6487825E-2,-1.5156229E0,-6.033952E-1,-6.890411E-1,-1.3585374E0,-1.1425729E0,-0E0,-8.0455905E-1,8.8823564E-2,7.991932E-1,-0E0,-8.936905E-2,-1.2094796E0,-8.1642056E-1,1.9726937E-1,-7.140819E-1,-1.563898E0,6.515247E-1,-8.477327E-1,-2.0372963E-2,7.770558E-1,1.0612148E-2,-1.1197239E0,-5.560575E-1,6.972755E-1,-1.1966475E0,9.4356287E-1,1.2040352E0,6.1162853E-1,1.8795176E-1,-5.822285E-2,9.918651E-2,-1.3637199E0,1.6782033E0,1.8555056E-2,1.4244739E0,3.2203016E-1,-6.303834E-2,2.9081205E-2,-9.174337E-2,-7.6362437E-1,-1.0194272E0,3.9184576E-1,-6.2384754E-2,-7.236593E-1,1.485742E0,8.9769334E-1,-2.6031852E-2,-1.570315E0,-5.833111E-1,8.698368E-2,-9.183568E-2,-8.4496416E-2,-7.314675E-2,6.840147E-3,-7.6406404E-2,-6.458422E-2,-5.9827324E-2,-7.64318E-2,1.3822406E-2,-5.3010978E-2,8.375436E-3,-7.081347E-2,-6.8584286E-2,-2.2161094E-2,-5.824232E-2,-2.283949E-3,-2.9376997E-2,-6.659646E-2,-1.9214454E-3,6.1502125E-2,4.96489E-2,2.3709016E-2,-6.0948767E-2,-3.768499E-2,-4.5844704E-2,-5.210835E-3,-1.1280145E-2,2.608643E-2,-7.977981E-2,-8.820926E-3,-9.0654776E-2,-6.1940458E-2,2.1284243E-2,7.8865096E-2,-4.470705E-2,-1.8791137E-2,5.2946326E-3,-2.3772558E-2,5.9881914E-2,2.3036897E-2,-1.8914675E-2,-7.734951E-2,-3.7186496E-2,-1.6703462E-2,4.0896412E-2,-4.8863273E-2,-1.41861355E-2,-6.595174E-2,5.6604393E-2,-7.471929E-2,4.4362172E-2,6.849815E-2,3.7145004E-2,9.079429E-3,-1.7823875E-2,4.9339607E-2,-6.119496E-3,1.8692106E-2,-7.73617E-2,-5.0273318E-2,3.149797E-2,9.107894E-2,1.1710812E-2,7.344686E-2,6.7077495E-2,-1.8225743E-2,-4.7592994E-2,1.4291914E-2,-7.721716E-2,4.400539E-2,2.169255E-2,-7.3137894E-2,-9.6200155E-3,-3.7748292E-2,6.027183E-2,7.915747E-2,5.1213186E-2,3.5629782E-3,-8.6838014E-2,-3.78076E-2,8.455059E-3,-3.3195775E-2,-1.832122E-2,4.3271195E-2],"categories":[],"categories_nodes":[],"categories_segments":[],"categories_sizes":[],"default_left":[0,0,0,0,0,0,0,0,0,0,0,0,0,0,0,0,0,0,0,0,0,0,0,0,0,0,0,0,0,0,0,0,0,0,0,0,0,0,0,0,0,0,0,0,0,0,0,0,0,0,0,0,0,0,0,0,0,0,0,0,0,0,0,0,0,0,0,0,0,0,0,0,0,0,0,0,0,0,0,0,0,0,0,0,0,0,0,0,0,0,0,0,0,0,0,0,0,0,0,0,0,0,0,0,0,0,0,0,0,0,0,0,0,0,0,0,0,0,0,0,0,0,0,0,0,0,0,0,0,0,0,0,0,0,0,0,0,0,0,0,0,0,0,0,0,0,0,0,0,0,0,0,0,0,0,0,0,0,0,0,0,0,0,0,0,0,0,0,0,0,0,0,0,0,0,0,0,0,0,0,0,0,0,0,0,0,0,0,0,0,0,0,0,0,0,0,0,0,0,0,0,0,0],"id":1,"left_children":[1,3,-1,5,7,9,11,13,15,17,19,21,23,25,27,29,31,33,35,37,39,41,43,45,47,49,51,53,55,57,59,61,63,65,67,69,71,73,75,-1,77,79,81,83,85,87,89,-1,-1,91,93,95,97,99,101,103,105,107,-1,109,111,113,115,117,-1,119,121,123,-1,125,127,129,131,133,-1,135,137,139,-1,-1,141,143,145,147,149,151,153,155,157,-1,159,161,163,165,167,169,171,173,-1,175,177,179,-1,181,183,-1,-1,-1,185,187,189,-1,191,193,195,-1,197,199,201,-1,-1,-1,-1,-1,-1,-1,-1,-1,-1,-1,-1,-1,-1,-1,-1,-1,-1,-1,-1,-1,-1,-1,-1,-1,-1,-1,-1,-1,-1,-1,-1,-1,-1,-1,-1,-1,-1,-1,-1,-1,-1,-1,-1,-1,-1,-1,-1,-1,-1,-1,-1,-1,-1,-1,-1,-1,-1,-1,-1,-1,-1,-1,-1,-1,-1,-1,-1,-1,-1,-1,-1,-1,-1,-1,-1,-1,-1,-1,-1,-1,-1,-1,-1],"loss_changes":[5.0117812E4,8.398623E3,0E0,7.5496875E2,2.1509487E3,1.9791406E2,2.8964355E2,4.5325745E2,6.6643616E2,1.3685156E2,6.4258156E1,1.9293066E2,3.574341E1,3.4016736E2,1.5854877E2,1.2234465E2,1.8906421E2,2.6395508E1,9.19082E1,3.1370804E1,4.884424E0,8.2876465E1,8.98562E1,2.8925331E1,1.6507803E1,1.9010352E2,2.210611E1,5.9628242E1,1.9168137E1,3.2366135E1,9.8276695E1,1.2348926E2,1.3287397E1,8.209473E0,1.301178E0,3.3685547E1,6.2956482E1,7.553116E0,1.3766844E1,0E0,2.2236423E0,6.844238E1,3.0368423E1,8.589569E0,2.5137878E2,1.2882385E1,7.1718225E0,0E0,0E0,4.7745868E2,2.253086E2,9.462219E0,6.366439E0,1.0951102E2,4.581852E0,1.0877319E1,7.156364E0,1.7401215E1,0E0,5.7557392E1,1.9964409E0,1.0423877E2,1.4476166E0,8.1762705E0,0E0,2.5864258E0,9.197416E0,6.3897705E-1,0E0,1.7308594E1,1.80495E1,1.5286172E2,3.3874512E0,3.6516724E0,0E0,2.429306E0,6.1558776E0,1.1764526E0,0E0,0E0,1.4543945E1,2.1206177E1,4.707609E0,7.5921574E0,1.0528931E1,2.436457E1,3.3607666E1,1.5809169E0,1.2680401E1,0E0,3.4161644E0,1.4990894E2,6.7861465E1,6.851831E1,2.6318768E1,4.245346E0,2.1854753E0,5.4148426E0,0E0,6.6857574E1,1.7176132E0,2.2133942E0,0E0,5.3276367E0,8.803479E0,0E0,0E0,0E0,6.2617893E0,3.2070602E1,3.8599274E1,0E0,1.1730423E0,2.4197998E1,4.6899048E1,0E0,3.3194733E-1,3.4965038E0,1.0070139E1,0E0,0E0,0E0,0E0,0E0,0E0,0E0,0E0,0E0,0E0,0E0,0E0,0E0,0E0,0E0,0E0,0E0,0E0,0E0,0E0,0E0,0E0,0E0,0E0,0E0,0E0,0E0,0E0,0E0,0E0,0E0,0E0,0E0,0E0,0E0,0E0,0E0,0E0,0E0,0E0,0E0,0E0,0E0,0E0,0E0,0E0,0E0,0E0,0E0,0E0,0E0,0E0,0E0,0E0,0E0,0E0,0E0,0E0,0E0,0E0,0E0,0E0,0E0,0E0,0E0,0E0,0E0,0E0,0E0,0E0,0E0,0E0,0E0,0E0,0E0,0E0,0E0,0E0,0E0,0E0,0E0,0E0,0E0,0E0],"parents":[2147483647,0,0,1,1,3,3,4,4,5,5,6,6,7,7,8,8,9,9,10,10,11,11,12,12,13,13,14,14,15,15,16,16,17,17,18,18,19,19,20,20,21,21,22,22,23,23,24,24,25,25,26,26,27,27,28,28,29,29,30,30,31,31,32,32,33,33,34,34,35,35,36,36,37,37,38,38,40,40,41,41,42,42,43,43,44,44,45,45,46,46,49,49,50,50,51,51,52,52,53,53,54,54,55,55,56,56,57,57,59,59,60,60,61,61,62,62,63,63,65,65,66,66,67,67,69,69,70,70,71,71,72,72,73,73,75,75,76,76,77,77,80,80,81,81,82,82,83,83,84,84,85,85,86,86,87,87,88,88,90,90,91,91,92,92,93,93,94,94,95,95,96,96,97,97,99,99,100,100,101,101,103,103,104,104,108,108,109,109,110,110,112,112,113,113,114,114,116,116,117,117,118,118],"right_children":[2,4,-1,6,8,10,12,14,16,18,20,22,24,26,28,30,32,34,36,38,40,42,44,46,48,50,52,54,56,58,60,62,64,66,68,70,72,74,76,-1,78,80,82,84,86,88,90,-1,-1,92,94,96,98,100,102,104,106,108,-1,110,112,114,116,118,-1,120,122,124,-1,126,128,130,132,134,-1,136,138,140,-1,-1,142,144,146,148,150,152,154,156,158,-1,160,162,164,166,168,170,172,174,-1,176,178,180,-1,182,184,-1,-1,-1,186,188,190,-1,192,194,196,-1,198,200,202,-1,-1,-1,-1,-1,-1,-1,-1,-1,-1,-1,-1,-1,-1,-1,-1,-1,-1,-1,-1,-1,-1,-1,-1,-1,-1,-1,-1,-1,-1,-1,-1,-1,-1,-1,-1,-1,-1,-1,-1,-1,-1,-1,-1,-1,-1,-1,-1,-1,-1,-1,-1,-1,-1,-1,-1,-1,-1,-1,-1,-1,-1,-1,-1,-1,-1,-1,-1,-1,-1,-1,-1,-1,-1,-1,-1,-1,-1,-1,-1,-1,-1,-1,-1],"split_conditions":[1E0,1.5E1,9.522639E-2,1.2E1,1E0,1E0,1E0,1.6E1,1.8E1,5E0,2E0,1.4E1,7.8571427E-1,1E0,1E0,2.631579E-1,1E0,9.52381E-2,1E0,1E0,2.1052632E-1,1E0,9E0,1E0,1E1,2.6923078E-1,5.882353E-2,1E0,4E0,1.8181819E-1,7.692308E-1,3E0,1E0,1E0,1E0,1E0,1E0,1E0,2.947703E0,-1.6920082E-2,1E0,4.6666667E-1,2E0,7E0,1E1,1.3E1,2.1052632E-1,1.2802106E-2,-8.2478896E-2,2.0588236E-1,5E0,7.241379E-1,3.688722E0,1.923077E-1,6.571429E-1,8E-1,3.8E1,6.166667E-1,7.5222135E-2,6.5217394E-1,3.2195282E0,1.5151516E-1,6.9767445E-2,2E0,6.2199008E-2,5.263158E-1,1.1E1,1E0,-3.6487825E-2,5.5E-1,8.235294E-1,1E0,5.555556E-1,1.2903225E-1,-0E0,3.4615386E-1,1E0,1.1E1,-0E0,-8.936905E-2,1.5789473E-1,1E0,1.3E1,6E0,8E0,5E0,1E0,6.7741936E-1,6.4705884E-1,1.0612148E-2,1.5E-1,1.7E1,2E1,5.3333336E-1,8.125E-1,6E-1,6.7741936E-1,7.1428573E-1,-5.822285E-2,3.6536608E0,6.2068963E-1,3.3278196E0,1.8555056E-2,3.46772E0,1E0,-6.303834E-2,2.9081205E-2,-9.174337E-2,1E0,1E0,1E0,-6.2384754E-2,4.1935483E-1,3.6368423E0,2.1212122E-1,-2.6031852E-2,4.117647E-1,5.6666666E-1,5.925926E-1,-9.183568E-2,-8.4496416E-2,-7.314675E-2,6.840147E-3,-7.6406404E-2,-6.458422E-2,-5.9827324E-2,-7.64318E-2,1.3822406E-2,-5.3010978E-2,8.375436E-3,-7.081347E-2,-6.8584286E-2,-2.2161094E-2,-5.824232E-2,-2.283949E-3,-2.9376997E-2,-6.659646E-2,-1.9214454E-3,6.1502125E-2,4.96489E-2,2.3709016E-2,-6.0948767E-2,-3.768499E-2,-4.5844704E-2,-5.210835E-3,-1.1280145E-2,2.608643E-2,-7.977981E-2,-8.820926E-3,-9.0654776E-2,-6.1940458E-2,2.1284243E-2,7.8865096E-2,-4.470705E-2,-1.8791137E-2,5.2946326E-3,-2.3772558E-2,5.9881914E-2,2.3036897E-2,-1.8914675E-2,-7.734951E-2,-3.7186496E-2,-1.6703462E-2,4.0896412E-2,-4.8863273E-2,-1.41861355E-2,-6.595174E-2,5.6604393E-2,-7.471929E-2,4.4362172E-2,6.849815E-2,3.7145004E-2,9.079429E-3,-1.7823875E-2,4.9339607E-2,-6.119496E-3,1.8692106E-2,-7.73617E-2,-5.0273318E-2,3.149797E-2,9.107894E-2,1.1710812E-2,7.344686E-2,6.7077495E-2,-1.8225743E-2,-4.7592994E-2,1.4291914E-2,-7.721716E-2,4.400539E-2,2.169255E-2,-7.3137894E-2,-9.6200155E-3,-3.7748292E-2,6.027183E-2,7.915747E-2,5.1213186E-2,3.5629782E-3,-8.6838014E-2,-3.78076E-2,8.455059E-3,-3.3195775E-2,-1.832122E-2,4.3271195E-2],"split_indices":[2,0,0,0,7,15,20,1,0,1,15,0,10,20,5,50,58,6,5,56,50,60,1,5,1,42,6,20,34,6,41,34,36,20,59,20,22,63,12,0,17,41,15,1,1,0,50,0,0,42,27,41,12,42,29,29,0,10,0,41,12,42,8,60,0,41,0,22,0,41,29,58,6,6,0,42,17,0,0,0,6,56,0,1,1,27,60,10,41,0,6,0,0,41,10,41,10,41,0,12,10,12,0,12,22,0,0,0,60,20,36,0,10,12,42,0,50,29,10,0,0,0,0,0,0,0,0,0,0,0,0,0,0,0,0,0,0,0,0,0,0,0,0,0,0,0,0,0,0,0,0,0,0,0,0,0,0,0,0,0,0,0,0,0,0,0,0,0,0,0,0,0,0,0,0,0,0,0,0,0,0,0,0,0,0,0,0,0,0,0,0,0,0,0,0,0,0,0,0,0,0,0,0],"split_type":[0,0,0,0,0,0,0,0,0,0,0,0,0,0,0,0,0,0,0,0,0,0,0,0,0,0,0,0,0,0,0,0,0,0,0,0,0,0,0,0,0,0,0,0,0,0,0,0,0,0,0,0,0,0,0,0,0,0,0,0,0,0,0,0,0,0,0,0,0,0,0,0,0,0,0,0,0,0,0,0,0,0,0,0,0,0,0,0,0,0,0,0,0,0,0,0,0,0,0,0,0,0,0,0,0,0,0,0,0,0,0,0,0,0,0,0,0,0,0,0,0,0,0,0,0,0,0,0,0,0,0,0,0,0,0,0,0,0,0,0,0,0,0,0,0,0,0,0,0,0,0,0,0,0,0,0,0,0,0,0,0,0,0,0,0,0,0,0,0,0,0,0,0,0,0,0,0,0,0,0,0,0,0,0,0,0,0,0,0,0,0,0,0,0,0,0,0,0,0,0,0,0,0],"sum_hessian":[3.1732074E4,2.2143812E4,9.588261E3,1.3872731E4,8.271082E3,7.6913696E3,6.181362E3,6.0726865E3,2.198395E3,7.424807E3,2.665626E2,6.020683E3,1.6067845E2,4.769966E3,1.3027208E3,6.8273236E2,1.5156626E3,2.1184243E3,5.306383E3,2.30581E2,3.598161E1,4.169831E3,1.8508522E3,1.4219058E2,1.848787E1,4.606547E3,1.6341911E2,1.1760968E3,1.26624054E2,7.089374E1,6.118386E2,1.4306868E3,8.497587E1,1.897721E3,2.2070334E2,4.7164995E3,5.8988324E2,1.6159709E2,6.898391E1,4.4996943E0,3.1481915E1,3.8394805E3,3.3035077E2,1.7644727E2,1.6744049E3,1.24702194E2,1.7488386E1,6.4961405E0,1.1991729E1,3.9368555E3,6.696913E2,1.4892358E2,1.4495539E1,1.1491033E3,2.6993456E1,1.2012606E2,6.4979906E0,6.764469E1,3.24905E0,5.173873E2,9.445131E1,1.4144607E3,1.622609E1,8.047696E1,4.4989085E0,1.8829834E3,1.473743E1,2.1421068E2,6.4926486E0,4.673517E3,4.298244E1,2.438191E2,3.4606415E2,1.5559715E2,5.9999275E0,2.8740786E1,4.0243126E1,2.748439E1,3.997525E0,2.2228546E2,3.6171948E3,2.9811362E2,3.2237125E1,1.59864235E1,1.6046085E2,1.1970317E2,1.5547017E3,2.4993656E1,9.9708534E1,5.249536E0,1.223885E1,3.6058481E3,3.3100726E2,6.170306E2,5.2660698E1,1.07182396E2,4.174118E1,1.0496673E1,3.998866E0,1.0964323E3,5.26711E1,2.2993649E1,3.9998085E0,1.0938693E2,1.0739131E1,3.248928E0,3.2490625E0,3.866128E1,2.8983408E1,2.9734232E1,4.8765308E2,1.049196E1,8.395935E1,9.653588E2,4.4910184E2,3.246015E0,1.2980075E1,5.3985535E1,2.6491426E1,1.5279402E3,3.5504327E2,9.737743E0,4.9996862E0,1.2157884E2,9.263184E1,1.8707784E2,4.4864395E3,1.4749964E1,2.8232477E1,1.12245445E2,1.3157367E2,3.4056418E2,5.499984E0,1.5235042E2,3.2467356E0,2.1993792E1,6.7469935E0,3.6996502E1,3.2466218E0,1.5737961E1,1.1746429E1,3.5415164E3,7.5678474E1,2.608821E2,3.723153E1,1.3994445E1,1.8242682E1,5.2406273E0,1.0745796E1,8.8067604E1,7.2393234E1,9.748894E1,2.2214233E1,1.4144921E3,1.4020963E2,1.9993769E1,4.999888E0,4.1468666E1,5.823987E1,5.249272E0,6.989578E0,1.9524315E3,1.6534167E3,3.0929355E2,2.1713717E1,7.342987E1,5.436007E2,4.9416042E1,3.244654E0,3.92313E1,6.7951096E1,3.1243818E1,1.0497362E1,6.4972277E0,3.9994447E0,6.0696106E2,4.8947113E2,3.24505E1,2.02206E1,3.4994879E0,1.949416E1,4.2458105E0,1.0514112E2,3.996268E0,6.742863E0,2.4735115E1,4.248293E0,2.3484247E1,6.249985E0,4.776546E2,9.998486E0,5.2477155E0,7.871163E1,2.5266791E2,7.126909E2,3.891432E2,5.9958645E1,9.73406E0,3.246015E0,4.9974723E0,4.898806E1,1.6993982E1,9.497445E0],"tree_param":{"num_deleted":"0","num_feature":"68","num_nodes":"203","size_leaf_vector":"1"}},{"base_weights":[-5.5559003E-3,-7.8810877E-1,9.111714E-2,-1.2445799E0,-3.4327473E-2,-1.388024E0,-8.931406E-1,-3.275957E-1,7.6669323E-1,-1.6807106E0,-1.3045379E0,-9.322236E-1,3.4068218E-1,-1.6105266E0,-2.0805004E-1,4.0350086E-3,1.1108832E0,-1.7211964E0,-1.3275259E0,-1.3382052E0,-5.9997123E-1,-1.5279622E0,-8.653011E-1,-9.129095E-1,6.145769E-1,-8.1376806E-2,-9.6457E-1,-3.3365312E-1,7.467968E-1,-1.1951597E0,1.4413318E-1,3.8974667E-1,1.2519206E0,-1.7274938E0,-1.63724E-1,-1.3485923E0,-4.88643E-3,-1.3531878E0,-2.467166E-1,-7.4242234E-1,2.8140453E-1,-8.564295E-2,-8.3658737E-1,3.7615266E-1,-9.413482E-1,1.6958782E-1,-7.230482E-2,1.0343876E0,3.055487E-1,-1.0859318E0,-1.9573262E-2,-5.275841E-1,2.5459847E-1,8.289721E-1,-6.546977E-1,-1.341269E0,7.292573E-2,3.0357653E-1,-7.1585333E-1,1.7729302E-1,8.247786E-2,1.2831298E0,-7.925362E-2,-1.7335505E0,-9.899249E-1,-3.9263897E-2,2.6810503E-2,-1.3796971E0,-5.755014E-1,-1.3926754E0,-1.0091283E0,-1.4206927E-1,-8.266548E-2,-9.651258E-1,-1.4710055E-1,6.1818486E-1,-5.406381E-1,-1.138554E0,-6.060665E-1,4.863674E-1,-9.98577E-1,-9.812414E-1,-3.608973E-1,-1.4742278E-2,2.7500203E-2,7.277001E-1,1.255861E0,5.0210404E-1,-8.2196635E-1,-2.9931942E-2,-6.3596554E-2,-6.626945E-1,-2.6071197E-1,1.1175709E0,1.4097399E-1,-1.1487491E0,8.8727653E-1,3.7263732E-2,-9.302545E-1,-6.612303E-1,-8.8303044E-2,-1.390402E-1,5.4368067E-1,-1.1759925E0,-6.2241375E-1,-4.947409E-2,1.5968385E0,1.0301198E0,1.4514893E0,-8.688017E-2,-4.5115795E-2,-7.044292E-2,-1.9052194E-4,-5.6837775E-2,-7.331665E-2,-4.369693E-2,-4.4360786E-4,-7.4137464E-2,-6.465265E-2,-3.656419E-2,-5.8127563E-2,-4.8197396E-2,-2.98813E-4,-2.902627E-2,-5.4842122E-2,1.0717045E-2,-4.0392846E-2,3.7331045E-2,-2.0463843E-2,-3.268479E-3,-3.5862286E-2,-4.6192493E-2,-7.403637E-2,-3.9761316E-2,5.5228076E-3,1.7323129E-2,6.8154015E-2,-7.2290756E-2,-1.2545183E-2,-5.537933E-2,-4.1843973E-2,-2.563325E-2,2.6299948E-2,5.5125724E-3,4.441719E-2,7.073145E-2,3.6051553E-2,6.2109116E-3,3.2281753E-2,-5.8371373E-2,-5.8602886E-3,-3.394807E-2,3.999422E-2,6.325072E-3,-1.7765947E-2,7.722322E-2,3.6698002E-2,4.4248765E-3,6.886677E-2,-7.974597E-2,-2.7205003E-2,3.8119566E-2,7.4314885E-2,-2.873905E-2,2.9412065E-2,-2.8793886E-2,-6.473689E-2,-5.8993556E-2,-8.036125E-3,-6.783313E-2,3.6203729E-3,2.9233221E-2,-5.6176033E-2,-2.8034637E-2,-7.056903E-2,-3.410135E-2,2.1622421E-2,-9.140292E-3,7.534098E-2,8.508003E-2,3.27703E-2,4.2025905E-2,6.682896E-2,7.306852E-2,-2.0997686E-2],"categories":[],"categories_nodes":[],"categories_segments":[],"categories_sizes":[],"default_left":[0,0,0,0,0,0,0,0,0,0,0,0,0,0,0,0,0,0,0,0,0,0,0,0,0,0,0,0,0,0,0,0,0,0,0,0,0,0,0,0,0,0,0,0,0,0,0,0,0,0,0,0,0,0,0,0,0,0,0,0,0,0,0,0,0,0,0,0,0,0,0,0,0,0,0,0,0,0,0,0,0,0,0,0,0,0,0,0,0,0,0,0,0,0,0,0,0,0,0,0,0,0,0,0,0,0,0,0,0,0,0,0,0,0,0,0,0,0,0,0,0,0,0,0,0,0,0,0,0,0,0,0,0,0,0,0,0,0,0,0,0,0,0,0,0,0,0,0,0,0,0,0,0,0,0,0,0,0,0,0,0,0,0,0,0,0,0,0,0,0,0,0,0,0,0,0,0,0,0,0,0,0,0,0,0],"id":2,"left_children":[1,3,-1,5,7,9,11,13,15,17,19,21,23,25,27,29,31,33,35,37,39,41,43,45,47,-1,49,51,53,55,57,59,61,63,65,67,-1,69,71,73,75,-1,77,79,81,83,-1,85,87,89,-1,91,93,95,97,99,-1,101,103,105,-1,107,-1,109,111,-1,-1,113,115,117,119,121,-1,123,125,127,129,131,133,135,137,139,141,-1,-1,143,145,147,149,-1,-1,151,153,155,157,159,161,163,165,167,-1,169,171,173,175,177,179,181,183,-1,-1,-1,-1,-1,-1,-1,-1,-1,-1,-1,-1,-1,-1,-1,-1,-1,-1,-1,-1,-1,-1,-1,-1,-1,-1,-1,-1,-1,-1,-1,-1,-1,-1,-1,-1,-1,-1,-1,-1,-1,-1,-1,-1,-1,-1,-1,-1,-1,-1,-1,-1,-1,-1,-1,-1,-1,-1,-1,-1,-1,-1,-1,-1,-1,-1,-1,-1,-1,-1,-1,-1,-1,-1,-1,-1],"loss_changes":[4.5155582E4,7.605585E3,0E0,6.9256836E2,1.958997E3,2.3635938E2,1.9295044E2,9.357167E2,5.8653625E2,2.8377441E1,1.7952344E2,1.5277905E2,4.2856255E1,3.88562E0,6.700672E2,1.1700846E2,1.5595789E2,1.854834E1,5.6135254E0,1.18265625E2,4.407444E1,4.8103577E1,3.2921387E2,1.3324963E1,1.2760639E1,0E0,5.3654194E-1,5.633556E2,7.536377E1,3.0188423E1,8.5767715E1,6.7362656E1,1.1598657E2,6.63916E0,4.3519225E0,4.3815002E0,0E0,9.567871E1,1.4253487E1,3.963011E1,1.3959421E1,0E0,5.0005035E0,3.0989927E1,7.551196E1,1.6432737E0,0E0,1.7825966E0,1.3724451E1,1.8040562E-1,0E0,1.3362463E2,1.1979071E2,7.179913E1,7.0770617E0,1.869522E1,0E0,5.616334E1,3.294403E0,7.043164E1,0E0,5.2521973E1,0E0,4.6157227E0,7.370474E0,0E0,0E0,2.574463E0,1.676007E0,5.544043E1,3.0564697E1,1.0401106E1,0E0,1.027063E1,2.0102713E1,5.0167866E0,1.1122522E0,9.738617E-1,6.9475803E0,2.2347202E1,4.5596666E0,5.4878662E1,2.8912764E1,0E0,0E0,1.8294973E0,7.3479843E-1,2.6614933E0,1.9847722E0,0E0,0E0,5.9160522E1,4.585782E1,2.1929932E1,7.0018074E1,3.7664146E0,4.33089E1,4.131144E0,2.4542656E0,7.0612698E0,0E0,4.8146805E1,2.3988983E1,1.2140579E0,5.578335E0,3.934899E1,1.6205063E0,2.8448608E1,1.4813232E1,0E0,0E0,0E0,0E0,0E0,0E0,0E0,0E0,0E0,0E0,0E0,0E0,0E0,0E0,0E0,0E0,0E0,0E0,0E0,0E0,0E0,0E0,0E0,0E0,0E0,0E0,0E0,0E0,0E0,0E0,0E0,0E0,0E0,0E0,0E0,0E0,0E0,0E0,0E0,0E0,0E0,0E0,0E0,0E0,0E0,0E0,0E0,0E0,0E0,0E0,0E0,0E0,0E0,0E0,0E0,0E0,0E0,0E0,0E0,0E0,0E0,0E0,0E0,0E0,0E0,0E0,0E0,0E0,0E0,0E0,0E0,0E0,0E0,0E0,0E0,0E0],"parents":[2147483647,0,0,1,1,3,3,4,4,5,5,6,6,7,7,8,8,9,9,10,10,11,11,12,12,13,13,14,14,15,15,16,16,17,17,18,18,19,19,20,20,21,21,22,22,23,23,24,24,26,26,27,27,28,28,29,29,30,30,31,31,32,32,33,33,34,34,35,35,37,37,38,38,39,39,40,40,42,42,43,43,44,44,45,45,47,47,48,48,49,49,51,51,52,52,53,53,54,54,55,55,57,57,58,58,59,59,61,61,63,63,64,64,67,67,68,68,69,69,70,70,71,71,73,73,74,74,75,75,76,76,77,77,78,78,79,79,80,80,81,81,82,82,85,85,86,86,87,87,88,88,91,91,92,92,93,93,94,94,95,95,96,96,97,97,98,98,99,99,101,101,102,102,103,103,104,104,105,105,106,106,107,107,108,108],"right_children":[2,4,-1,6,8,10,12,14,16,18,20,22,24,26,28,30,32,34,36,38,40,42,44,46,48,-1,50,52,54,56,58,60,62,64,66,68,-1,70,72,74,76,-1,78,80,82,84,-1,86,88,90,-1,92,94,96,98,100,-1,102,104,106,-1,108,-1,110,112,-1,-1,114,116,118,120,122,-1,124,126,128,130,132,134,136,138,140,142,-1,-1,144,146,148,150,-1,-1,152,154,156,158,160,162,164,166,168,-1,170,172,174,176,178,180,182,184,-1,-1,-1,-1,-1,-1,-1,-1,-1,-1,-1,-1,-1,-1,-1,-1,-1,-1,-1,-1,-1,-1,-1,-1,-1,-1,-1,-1,-1,-1,-1,-1,-1,-1,-1,-1,-1,-1,-1,-1,-1,-1,-1,-1,-1,-1,-1,-1,-1,-1,-1,-1,-1,-1,-1,-1,-1,-1,-1,-1,-1,-1,-1,-1,-1,-1,-1,-1,-1,-1,-1,-1,-1,-1,-1,-1],"split_conditions":[1E0,1.5E1,9.111714E-2,1.3E1,1E0,5E0,1E0,9.315069E-1,1.8E1,1.0344828E-1,1E0,5.7894737E-1,2.0689656E-1,9.183673E-1,2.0588236E-1,2.631579E-1,1E0,1E0,1E0,1E0,2E0,8.5915494E-1,6.4705884E-1,9.245283E-1,6.4705884E-1,-8.1376806E-2,6.333333E-1,9.4827586E-1,5.5555556E-2,1E0,7.692308E-1,1E0,3E0,1E0,4.347826E-1,2E0,-4.88643E-3,1E0,1E0,1E0,8E0,-8.564295E-2,5.2E-1,1E0,1E0,5.588235E-1,-7.230482E-2,3.2389011E0,2E0,1.9E1,-1.9573262E-2,3.5216405E0,1E0,8E0,4.642857E-1,6.451613E-2,7.292573E-2,1.2E1,3.2866294E0,1E0,8.247786E-2,2.1E1,-7.925362E-2,1E0,1.1E1,-3.9263897E-2,2.6810503E-2,1.2903225E-1,2.9411766E-1,9.019608E-1,1E0,1E1,-8.266548E-2,2.9032257E-1,4.3333334E-1,1E0,3.1068907E0,4.117647E-1,6.0714287E-1,5E0,3E0,1.4E1,2E0,-1.4742278E-2,2.7500203E-2,3.4042552E-1,1E0,5.588235E-1,7.894737E-1,-2.9931942E-2,-6.3596554E-2,1E0,1E0,1E0,1.5151516E-1,4.1666666E-1,5E0,3.8709676E-1,8.125E-1,7.368421E-1,-8.8303044E-2,8.245614E-1,1E0,1.6E1,4.642857E-1,1E0,4.4E-1,2E0,1E0,-8.688017E-2,-4.5115795E-2,-7.044292E-2,-1.9052194E-4,-5.6837775E-2,-7.331665E-2,-4.369693E-2,-4.4360786E-4,-7.4137464E-2,-6.465265E-2,-3.656419E-2,-5.8127563E-2,-4.8197396E-2,-2.98813E-4,-2.902627E-2,-5.4842122E-2,1.0717045E-2,-4.0392846E-2,3.7331045E-2,-2.0463843E-2,-3.268479E-3,-3.5862286E-2,-4.6192493E-2,-7.403637E-2,-3.9761316E-2,5.5228076E-3,1.7323129E-2,6.8154015E-2,-7.2290756E-2,-1.2545183E-2,-5.537933E-2,-4.1843973E-2,-2.563325E-2,2.6299948E-2,5.5125724E-3,4.441719E-2,7.073145E-2,3.6051553E-2,6.2109116E-3,3.2281753E-2,-5.8371373E-2,-5.8602886E-3,-3.394807E-2,3.999422E-2,6.325072E-3,-1.7765947E-2,7.722322E-2,3.6698002E-2,4.4248765E-3,6.886677E-2,-7.974597E-2,-2.7205003E-2,3.8119566E-2,7.4314885E-2,-2.873905E-2,2.9412065E-2,-2.8793886E-2,-6.473689E-2,-5.8993556E-2,-8.036125E-3,-6.783313E-2,3.6203729E-3,2.9233221E-2,-5.6176033E-2,-2.8034637E-2,-7.056903E-2,-3.410135E-2,2.1622421E-2,-9.140292E-3,7.534098E-2,8.508003E-2,3.27703E-2,4.2025905E-2,6.682896E-2,7.306852E-2,-2.0997686E-2],"split_indices":[2,0,0,0,7,1,20,45,0,6,15,41,11,45,42,50,22,57,18,20,15,45,41,45,41,0,10,45,6,24,41,20,34,20,42,34,0,5,37,56,1,0,50,5,15,10,0,12,46,1,0,12,65,1,10,6,0,1,12,24,0,0,0,56,0,0,0,6,6,45,22,0,0,11,11,17,12,50,10,27,5,0,15,0,0,11,17,10,49,0,0,20,22,22,42,41,27,10,49,49,0,45,36,0,11,36,10,46,17,0,0,0,0,0,0,0,0,0,0,0,0,0,0,0,0,0,0,0,0,0,0,0,0,0,0,0,0,0,0,0,0,0,0,0,0,0,0,0,0,0,0,0,0,0,0,0,0,0,0,0,0,0,0,0,0,0,0,0,0,0,0,0,0,0,0,0,0,0,0,0,0,0,0,0,0],"split_type":[0,0,0,0,0,0,0,0,0,0,0,0,0,0,0,0,0,0,0,0,0,0,0,0,0,0,0,0,0,0,0,0,0,0,0,0,0,0,0,0,0,0,0,0,0,0,0,0,0,0,0,0,0,0,0,0,0,0,0,0,0,0,0,0,0,0,0,0,0,0,0,0,0,0,0,0,0,0,0,0,0,0,0,0,0,0,0,0,0,0,0,0,0,0,0,0,0,0,0,0,0,0,0,0,0,0,0,0,0,0,0,0,0,0,0,0,0,0,0,0,0,0,0,0,0,0,0,0,0,0,0,0,0,0,0,0,0,0,0,0,0,0,0,0,0,0,0,0,0,0,0,0,0,0,0,0,0,0,0,0,0,0,0,0,0,0,0,0,0,0,0,0,0,0,0,0,0,0,0,0,0,0,0,0,0],"sum_hessian":[3.1565965E4,2.2103656E4,9.462308E3,1.3766328E4,8.337329E3,9.773802E3,3.9925266E3,6.103458E3,2.233871E3,2.1646428E3,7.6091587E3,3.8702566E3,1.2227005E2,5.1911816E2,5.58434E3,6.9505853E2,1.5388125E3,1.938297E3,2.2634575E2,7.261147E3,3.4801144E2,3.885038E2,3.481753E3,2.1440521E1,1.0082953E2,5.041679E2,1.4950239E1,4.9358237E3,6.48516E2,7.18449E1,6.232136E2,2.524558E2,1.2863567E3,1.9303188E3,7.9782124E0,2.2235881E2,3.9869323E0,7.1624985E3,9.86487E1,2.9982394E2,4.8187504E1,3.0524817E2,8.325565E1,2.006657E2,3.2810872E3,7.238669E0,1.4201853E1,4.1619358E1,5.9210167E1,1.1455161E1,3.4950783E0,3.7122625E3,1.2235615E3,6.1305023E2,3.5465763E1,6.860008E1,3.2448244E0,5.2638416E2,9.682948E1,2.1706944E2,3.538635E1,1.2729363E3,1.3420367E1,1.9131227E3,1.7196106E1,4.236799E0,3.7414134E0,2.1287976E2,9.479053E0,6.422097E3,7.4040125E2,9.29086E1,5.7400937E0,2.17624E2,8.2199936E1,3.4445328E1,1.3742173E1,3.4149414E1,4.9106236E1,1.8643758E2,1.4228113E1,3.069279E3,2.1180815E2,3.2423263E0,3.996343E0,1.943869E1,2.2180668E1,5.0968414E1,8.2417555E0,4.4784255E0,6.976735E0,2.4632998E3,1.2489626E3,1.4122777E2,1.0823339E3,1.6970856E1,5.960794E2,1.0243864E1,2.52219E1,2.7449253E1,4.1150826E1,1.851241E2,3.4126007E2,1.420783E1,8.262165E1,1.8794124E2,2.9128212E1,5.11687E2,7.612493E2,1.9026354E3,1.0487387E1,1.1696814E1,5.4992924E0,5.9975044E1,1.5290472E2,5.738055E0,3.7409973E0,3.3648623E3,3.0572349E3,2.656803E2,4.7472098E2,1.223038E1,8.067822E1,5.7090794E1,1.605332E2,5.3473553E1,2.8726385E1,3.0947458E1,3.4978704E0,4.2476625E0,9.494511E0,2.3436113E1,1.0713301E1,3.8873474E1,1.023276E1,1.6208197E2,2.4355612E1,8.234785E0,5.9933276E0,1.6328489E3,1.4364302E3,1.8131572E2,3.0492435E1,4.489953E0,1.4948737E1,1.5690772E1,6.4898963E0,1.4735417E1,3.6232994E1,4.994943E0,3.2468119E0,2.4368018E3,2.6498016E1,2.4496407E2,1.0039986E3,6.528731E1,7.594046E1,1.039371E3,4.2962875E1,8.72761E0,8.243247E0,4.9526505E2,1.0081433E2,4.7465434E0,5.4973207E0,1.4235483E1,1.0986417E1,1.2715715E1,1.4733539E1,2.6659885E1,1.5846422E2,3.3376465E2,7.4954233E0,4.9847145E0,9.223116E0,7.8626495E1,3.9951532E0,1.739825E2,1.3958743E1,2.5389233E1,3.7389789E0,3.1862662E2,1.9306041E2,7.575222E2,3.7270901E0],"tree_param":{"num_deleted":"0","num_feature":"68","num_nodes":"185","size_leaf_vector":"1"}},{"base_weights":[-1.3717654E-3,-7.553185E-1,8.7535225E-2,-1.1245921E0,9.5688336E-2,-1.266321E0,-6.4979064E-1,-2.2114588E-1,8.4699196E-1,-1.5205817E0,-1.1537967E0,-5.6747925E-1,-1.6332028E0,-9.389396E-2,-1.5507667E0,9.274748E-2,1.0770205E0,-1.540053E0,-6.6656524E-1,-1.1742185E0,5.4361712E-2,-7.1522945E-1,4.9505928E-1,-8.253993E-2,-1.0075679E0,-2.2287849E-1,8.439453E-1,-7.8380294E-2,-1.1483499E0,-3.038941E-1,4.503373E-1,-1.8946879E-1,1.1532226E0,-1.6010879E0,-1.3743565E0,-8.253227E-1,9.0018594E-1,-1.2074136E0,-5.679918E-1,1.423752E-1,-6.367398E-1,-7.82316E-1,-2.6406232E-1,3.1723875E-1,1.3728206E0,-6.14066E-2,-1.9037252E-2,-3.936809E-1,2.1763659E-1,9.0861404E-1,-4.5931134E-1,-6.444409E-2,-2.1672893E-2,-1.2613933E-1,-1.3807052E0,-4.536788E-1,5.705917E-1,-2.4549359E-1,4.6475347E-2,1.1914724E0,-1.4157965E0,-1.6327698E0,-1.3077167E0,-1.40476E0,-3.847576E-1,-1.0710486E0,-4.20861E-1,6.03103E-2,2.0756364E-2,-1.2918175E0,-1.0952878E0,-7.389738E-1,-3.7962727E-2,-6.3619004E-3,6.1745137E-1,-8.253244E-2,2.666145E-1,-8.2331425E-1,-2.6729023E-1,-8.3516586E-1,-7.565784E-2,4.0166646E-1,-8.9735705E-1,1.5327775E0,-1.6475065E-2,-1.927457E-1,-6.0161585E-1,9.260128E-2,8.72055E-1,9.7528386E-1,-1.6485934E-1,-1.2776341E0,8.3481973E-1,-1.0012205E0,3.7352532E-2,-2.4000423E-1,-8.4254585E-2,-6.375136E-1,-8.575479E-2,6.220576E-1,-6.961255E-2,-4.526098E-1,1.4709042E-1,1.2191907E0,-1.2629007E0,-8.519758E-2,-3.0507347E-2,-7.664161E-2,-8.39658E-2,-7.145219E-2,-5.9727192E-2,-7.139313E-2,-4.818858E-2,1.90398E-2,-4.037936E-2,-5.9171896E-2,6.6593783E-3,-4.602291E-2,-1.2482953E-3,-6.636279E-2,-5.0191667E-2,-5.6534436E-2,-2.7178142E-2,-4.1751508E-2,-3.092712E-3,-5.7712525E-2,3.497585E-3,1.5737563E-2,-1.448468E-2,3.8682085E-2,-1.9575475E-2,2.5624046E-2,1.065487E-3,-4.6889264E-2,-3.1265423E-2,-1.7676527E-2,3.3634983E-2,-3.375399E-2,-7.061939E-2,3.0765211E-2,-9.276336E-3,3.3610594E-2,6.367814E-4,1.4094182E-4,-5.3788807E-2,8.0101214E-2,1.7323257E-2,-1.460502E-2,5.584528E-2,-3.3803947E-2,-1.1218572E-2,-1.8108012E-3,2.523276E-2,4.844994E-2,-2.5936538E-2,4.9844783E-2,-3.4020826E-2,-3.0863563E-2,5.0614234E-2,-7.743892E-2,-1.8147074E-2,-9.930785E-3,7.7318974E-2,-5.4298203E-2,-1.8833514E-2,8.61932E-3,-6.951117E-2,-4.6432044E-2,2.1972202E-2,-4.1484527E-2,-1.7980581E-2,3.1410668E-2,-2.3977354E-2,-5.8071494E-2,3.3245154E-2,2.205508E-2,-2.7417852E-2,2.953436E-2,-2.0325223E-2,7.2541706E-2,5.143094E-2,-1.7819688E-2,-8.131658E-2],"categories":[],"categories_nodes":[],"categories_segments":[],"categories_sizes":[],"default_left":[0,0,0,0,0,0,0,0,0,0,0,0,0,0,0,0,0,0,0,0,0,0,0,0,0,0,0,0,0,0,0,0,0,0,0,0,0,0,0,0,0,0,0,0,0,0,0,0,0,0,0,0,0,0,0,0,0,0,0,0,0,0,0,0,0,0,0,0,0,0,0,0,0,0,0,0,0,0,0,0,0,0,0,0,0,0,0,0,0,0,0,0,0,0,0,0,0,0,0,0,0,0,0,0,0,0,0,0,0,0,0,0,0,0,0,0,0,0,0,0,0,0,0,0,0,0,0,0,0,0,0,0,0,0,0,0,0,0,0,0,0,0,0,0,0,0,0,0,0,0,0,0,0,0,0,0,0,0,0,0,0,0,0,0,0,0,0,0,0,0,0,0,0,0,0,0,0,0,0,0,0,0,0],"id":3,"left_children":[1,3,-1,5,7,9,11,13,15,17,19,21,23,25,27,29,31,33,35,37,39,41,43,-1,45,47,49,-1,51,53,55,57,59,61,63,65,67,69,71,73,75,77,79,81,83,-1,-1,85,87,89,91,-1,-1,93,95,97,99,101,-1,103,105,107,109,111,113,115,117,-1,-1,119,121,123,125,127,129,-1,131,133,135,137,139,141,143,145,-1,147,149,151,153,155,157,159,161,163,165,167,-1,169,171,173,-1,175,177,179,181,-1,-1,-1,-1,-1,-1,-1,-1,-1,-1,-1,-1,-1,-1,-1,-1,-1,-1,-1,-1,-1,-1,-1,-1,-1,-1,-1,-1,-1,-1,-1,-1,-1,-1,-1,-1,-1,-1,-1,-1,-1,-1,-1,-1,-1,-1,-1,-1,-1,-1,-1,-1,-1,-1,-1,-1,-1,-1,-1,-1,-1,-1,-1,-1,-1,-1,-1,-1,-1,-1,-1,-1,-1,-1,-1,-1,-1,-1],"loss_changes":[4.131726E4,6.872301E3,0E0,1.0252402E3,1.575679E3,3.339668E2,2.828147E2,7.8745526E2,3.4043933E2,5.8604492E1,2.0113965E2,5.0882324E2,1.0466919E0,5.142794E2,6.8304443E-1,6.5404785E1,1.455028E2,3.308203E1,2.1159306E1,1.603252E2,8.329802E0,8.5763794E1,6.118696E1,0E0,7.7015877E-1,2.8130634E2,4.3782715E1,0E0,1.3091297E0,4.1514435E1,2.6630821E1,5.5614243E0,1.4112512E2,2.1407715E1,2.8001465E1,6.8675957E0,5.209446E-1,7.020703E1,3.776413E1,8.67292E0,1.4727491E1,5.193091E1,3.963876E1,3.4211536E1,1.8677307E1,0E0,0E0,1.1234967E2,8.530589E1,3.5318604E1,2.7470657E1,0E0,0E0,2.7144583E1,1.0093933E1,1.8295851E0,2.246286E1,6.840333E0,0E0,9.671069E1,3.6597176E0,7.852051E0,1.5360413E0,7.8151855E0,1.0038166E1,6.4801598E0,5.855167E0,0E0,0E0,4.2583984E1,6.3049316E1,2.0395782E1,1.2611274E1,8.604793E0,4.945245E0,0E0,4.7718912E-1,5.12041E1,1.5134341E1,7.2936707E0,2.1275818E1,3.2528843E1,3.5984898E0,4.2472534E0,0E0,1.7871684E2,3.692392E1,4.668838E1,2.310949E1,1.7230408E1,1.6256927E1,3.1383266E0,7.942254E0,1.0246735E0,3.0950367E1,4.0695324E0,0E0,5.949049E-1,3.371996E0,1.675505E1,0E0,4.933462E0,7.4365654E0,5.935254E1,4.5177174E0,0E0,0E0,0E0,0E0,0E0,0E0,0E0,0E0,0E0,0E0,0E0,0E0,0E0,0E0,0E0,0E0,0E0,0E0,0E0,0E0,0E0,0E0,0E0,0E0,0E0,0E0,0E0,0E0,0E0,0E0,0E0,0E0,0E0,0E0,0E0,0E0,0E0,0E0,0E0,0E0,0E0,0E0,0E0,0E0,0E0,0E0,0E0,0E0,0E0,0E0,0E0,0E0,0E0,0E0,0E0,0E0,0E0,0E0,0E0,0E0,0E0,0E0,0E0,0E0,0E0,0E0,0E0,0E0,0E0,0E0,0E0,0E0,0E0,0E0,0E0,0E0,0E0,0E0],"parents":[2147483647,0,0,1,1,3,3,4,4,5,5,6,6,7,7,8,8,9,9,10,10,11,11,12,12,13,13,14,14,15,15,16,16,17,17,18,18,19,19,20,20,21,21,22,22,24,24,25,25,26,26,28,28,29,29,30,30,31,31,32,32,33,33,34,34,35,35,36,36,37,37,38,38,39,39,40,40,41,41,42,42,43,43,44,44,47,47,48,48,49,49,50,50,53,53,54,54,55,55,56,56,57,57,59,59,60,60,61,61,62,62,63,63,64,64,65,65,66,66,69,69,70,70,71,71,72,72,73,73,74,74,76,76,77,77,78,78,79,79,80,80,81,81,82,82,83,83,85,85,86,86,87,87,88,88,89,89,90,90,91,91,92,92,93,93,94,94,95,95,97,97,98,98,99,99,101,101,102,102,103,103,104,104],"right_children":[2,4,-1,6,8,10,12,14,16,18,20,22,24,26,28,30,32,34,36,38,40,42,44,-1,46,48,50,-1,52,54,56,58,60,62,64,66,68,70,72,74,76,78,80,82,84,-1,-1,86,88,90,92,-1,-1,94,96,98,100,102,-1,104,106,108,110,112,114,116,118,-1,-1,120,122,124,126,128,130,-1,132,134,136,138,140,142,144,146,-1,148,150,152,154,156,158,160,162,164,166,168,-1,170,172,174,-1,176,178,180,182,-1,-1,-1,-1,-1,-1,-1,-1,-1,-1,-1,-1,-1,-1,-1,-1,-1,-1,-1,-1,-1,-1,-1,-1,-1,-1,-1,-1,-1,-1,-1,-1,-1,-1,-1,-1,-1,-1,-1,-1,-1,-1,-1,-1,-1,-1,-1,-1,-1,-1,-1,-1,-1,-1,-1,-1,-1,-1,-1,-1,-1,-1,-1,-1,-1,-1,-1,-1,-1,-1,-1,-1,-1,-1,-1,-1,-1,-1],"split_conditions":[1E0,1.6E1,8.7535225E-2,1.4E1,1E0,6E0,2E0,2E0,1.8E1,1E0,1E0,4E0,1E0,4E0,3.821928E0,3.188722E0,3E0,8.77551E-1,2E0,1E0,1E0,1E0,5E0,-8.253993E-2,3.324863E0,3.6424897E0,8E0,-7.8380294E-2,1E0,2E0,3E0,1E0,2E0,1E0,1E0,1E0,6.7741936E-1,9.111111E-1,1E0,2.840224E0,1E0,1E0,3E0,1E0,3E0,-6.14066E-2,-1.9037252E-2,6.1538464E-1,1E0,1E0,3.5849626E0,-6.444409E-2,-2.1672893E-2,3E0,5E0,3E0,1E0,5.925926E-1,4.6475347E-2,3E0,3.7345216E0,2.9166666E-1,3E0,1E0,8.235294E-1,1E0,8.8235295E-1,6.03103E-2,2.0756364E-2,1E0,4E0,2E0,2.1556392E0,8.235294E-1,1E0,-8.253244E-2,2.5503407E0,7.894737E-1,1E0,1E0,1E0,5E0,3.188722E0,2E0,-1.6475065E-2,1E0,3.3680425E0,2.3E1,4E0,1E0,1E0,1.1E1,1.1E1,1E0,2E0,3.3787835E0,-8.4254585E-2,3.6234653E0,3.530493E0,1.2E1,-6.961255E-2,5.4545456E-1,7.058824E-1,1.3793103E-1,5E0,-8.519758E-2,-3.0507347E-2,-7.664161E-2,-8.39658E-2,-7.145219E-2,-5.9727192E-2,-7.139313E-2,-4.818858E-2,1.90398E-2,-4.037936E-2,-5.9171896E-2,6.6593783E-3,-4.602291E-2,-1.2482953E-3,-6.636279E-2,-5.0191667E-2,-5.6534436E-2,-2.7178142E-2,-4.1751508E-2,-3.092712E-3,-5.7712525E-2,3.497585E-3,1.5737563E-2,-1.448468E-2,3.8682085E-2,-1.9575475E-2,2.5624046E-2,1.065487E-3,-4.6889264E-2,-3.1265423E-2,-1.7676527E-2,3.3634983E-2,-3.375399E-2,-7.061939E-2,3.0765211E-2,-9.276336E-3,3.3610594E-2,6.367814E-4,1.4094182E-4,-5.3788807E-2,8.0101214E-2,1.7323257E-2,-1.460502E-2,5.584528E-2,-3.3803947E-2,-1.1218572E-2,-1.8108012E-3,2.523276E-2,4.844994E-2,-2.5936538E-2,4.9844783E-2,-3.4020826E-2,-3.0863563E-2,5.0614234E-2,-7.743892E-2,-1.8147074E-2,-9.930785E-3,7.7318974E-2,-5.4298203E-2,-1.8833514E-2,8.61932E-3,-6.951117E-2,-4.6432044E-2,2.1972202E-2,-4.1484527E-2,-1.7980581E-2,3.1410668E-2,-2.3977354E-2,-5.8071494E-2,3.3245154E-2,2.205508E-2,-2.7417852E-2,2.953436E-2,-2.0325223E-2,7.2541706E-2,5.143094E-2,-1.7819688E-2,-8.131658E-2],"split_indices":[2,0,0,0,7,1,4,4,0,15,20,21,15,21,12,13,21,45,15,15,37,7,27,0,12,12,21,0,18,61,21,36,4,55,20,56,10,45,56,13,15,15,21,5,61,0,0,10,5,5,12,0,0,21,27,27,36,10,0,34,12,42,21,25,29,20,29,0,0,7,21,15,13,29,5,0,13,29,37,47,22,21,12,46,0,36,13,0,61,36,24,21,21,60,4,12,0,12,12,1,0,29,29,42,61,0,0,0,0,0,0,0,0,0,0,0,0,0,0,0,0,0,0,0,0,0,0,0,0,0,0,0,0,0,0,0,0,0,0,0,0,0,0,0,0,0,0,0,0,0,0,0,0,0,0,0,0,0,0,0,0,0,0,0,0,0,0,0,0,0,0,0,0,0,0,0,0,0,0,0,0,0,0],"split_type":[0,0,0,0,0,0,0,0,0,0,0,0,0,0,0,0,0,0,0,0,0,0,0,0,0,0,0,0,0,0,0,0,0,0,0,0,0,0,0,0,0,0,0,0,0,0,0,0,0,0,0,0,0,0,0,0,0,0,0,0,0,0,0,0,0,0,0,0,0,0,0,0,0,0,0,0,0,0,0,0,0,0,0,0,0,0,0,0,0,0,0,0,0,0,0,0,0,0,0,0,0,0,0,0,0,0,0,0,0,0,0,0,0,0,0,0,0,0,0,0,0,0,0,0,0,0,0,0,0,0,0,0,0,0,0,0,0,0,0,0,0,0,0,0,0,0,0,0,0,0,0,0,0,0,0,0,0,0,0,0,0,0,0,0,0,0,0,0,0,0,0,0,0,0,0,0,0,0,0,0,0,0,0],"sum_hessian":[3.1275992E4,2.1866926E4,9.409065E3,1.5249553E4,6.617373E3,1.1742518E4,3.5070352E3,4.654911E3,1.9624622E3,3.598321E3,8.1441963E3,3.2377175E3,2.6931747E2,4.249369E3,4.0554184E2,4.590648E2,1.5033973E3,3.5172097E3,8.11114E1,8.00893E3,1.3526653E2,2.8428315E3,3.9488602E2,2.60201E2,9.116487E0,3.7363623E3,5.1300684E2,3.862359E2,1.9305939E1,2.1758652E2,2.4147826E2,8.516371E1,1.4182336E3,2.5636228E3,9.535869E2,7.4136284E1,6.9751077E0,7.5920576E3,4.1687256E2,1.2081866E2,1.4447872E1,2.4740027E3,3.6882892E2,3.2959137E2,6.529465E1,5.9159665E0,3.20052E0,2.692661E3,1.0437014E3,4.8911603E2,2.3890806E1,1.5346392E1,3.9595475E0,1.8779607E2,2.9790459E1,2.792758E1,2.1355069E2,8.193154E1,3.2321672E0,1.3979941E3,2.0239477E1,2.3093267E3,2.5429605E2,9.2465796E2,2.8928946E1,4.493887E1,2.9197416E1,3.238855E0,3.7362528E0,4.324969E3,3.2670881E3,3.147534E2,1.0211917E2,9.260268E1,2.8215979E1,6.4697695E0,7.978102E0,2.2908486E3,1.8315399E2,9.050893E1,2.7832E2,3.0887296E2,2.0718418E1,5.9831024E1,5.463621E0,1.3706038E3,1.3220573E3,8.773638E2,1.6633765E2,4.606888E2,2.8427206E1,1.4691129E1,9.1996765E0,2.8852468E1,1.5894359E2,6.7208405E0,2.3069618E1,1.795284E1,9.97474E0,2.0880971E2,4.740982E0,5.3701813E1,2.8229733E1,1.3829202E3,1.5073945E1,1.39948435E1,6.244634E0,7.452689E2,1.5640577E3,1.1668888E2,1.3760718E2,8.762863E2,4.8371685E1,1.024421E1,1.8684734E1,4.1194565E1,3.744306E0,1.221066E1,1.6986757E1,3.8475488E3,4.7742044E2,3.0689421E3,1.9814598E2,2.753161E2,3.943728E1,8.228866E0,9.3890305E1,4.3189804E1,4.9412872E1,2.4721375E1,3.4946046E0,3.2369373E0,4.7411647E0,1.4489445E3,8.419041E2,1.6843138E2,1.4722614E1,7.269152E1,1.7817408E1,3.742771E1,2.4089229E2,1.8157886E2,1.272941E2,3.4972904E0,1.7221128E1,5.6120472E1,3.7105505E0,1.2747501E3,9.5853645E1,1.1032358E3,2.1882143E2,6.689152E2,2.084485E2,1.5584944E2,1.0488206E1,4.5520535E2,5.483478E0,2.093993E1,7.4872746E0,1.0712924E1,3.978205E0,3.9880133E0,5.2116637E0,2.4613783E1,4.2386866E0,1.4607564E2,1.2867947E1,3.2287986E0,3.4920416E0,9.226835E0,8.726006E0,3.2439818E0,6.7307577E0,4.23141E0,2.045783E2,4.746479E0,4.8955334E1,1.5734931E1,1.2494801E1,6.209758E2,7.6194434E2,4.959427E0,1.0114518E1],"tree_param":{"num_deleted":"0","num_feature":"68","num_nodes":"183","size_leaf_vector":"1"}},{"base_weights":[-2.8450985E-3,-7.208283E-1,8.438813E-2,-1.1429816E0,-2.8849885E-2,-1.323614E0,-9.09296E-1,-2.9600343E-1,7.053264E-1,-1.3472304E0,-7.644959E-2,-5.1938675E-2,-9.524067E-1,-1.8521509E-1,-1.4984674E0,1.28974775E-2,1.0278997E0,-1.4723346E0,-1.1723217E0,-4.0295106E-1,8.356425E-1,2.5542206E-1,-7.7236705E-2,-1.0383062E0,-7.283098E-1,-2.9709604E-1,6.7116135E-1,-1.5057164E0,-2.8481742E-2,1.07536614E-1,-1.5143405E0,1.1352078E0,-2.7411705E-1,-1.5059471E0,-1.1063042E0,-1.2048645E0,-4.9814057E-1,-5.188659E-1,8.2184345E-1,4.928948E-2,-2.0407176E-2,-1.0865836E-1,5.7144284E-1,-1.0567181E0,1.8477295E-1,-7.757032E-1,-3.284324E-1,-4.7447753E-1,2.318259E-1,-1.1386291E0,7.2640526E-1,-7.640215E-2,-1.2139896E0,-1.0309473E0,1.9230561E-1,-3.131709E-2,-8.2132034E-2,1.1581862E0,-1.2948515E0,-3.479102E-1,8.2970095E-1,-1.6219348E0,-1.4026196E0,-1.150795E0,4.5637852E-1,-1.2511238E0,-8.2385844E-1,-6.885014E-1,5.371005E-1,-9.189751E-1,-3.0039248E-1,-0E0,7.873624E-2,-1.8344657E-2,-1.0371418E0,3.8232625E-1,6.718635E-2,-1.0961652E0,-5.826666E-1,3.172998E-1,-7.2299205E-2,-5.3396803E-1,-8.664121E-1,-3.8194674E-1,7.836375E-2,-6.3856715E-1,-2.9887024E-1,1.0633559E0,1.19844966E-1,-7.678518E-2,-5.7695246E-1,8.023948E-1,-5.2062607E-1,-3.198744E-2,-1.2928697E0,-1.410345E0,5.9574068E-2,-6.8006376E-3,6.077113E-1,1.3413159E0,9.127781E-1,-1.5489623E-2,-7.801753E-2,1.5364987E-1,-5.157441E-1,1.7389156E-3,7.0315264E-2,-8.116525E-2,-2.9834112E-2,-7.1047984E-2,-5.820745E-2,-6.130272E-2,-2.478951E-2,4.1483644E-2,-1.5366862E-2,-4.5362752E-2,-6.487715E-2,1.0078439E-4,-6.170195E-2,-4.3530837E-2,-1.1670208E-2,-5.721859E-3,3.8177293E-2,-5.5988282E-2,-1.3436332E-2,9.246315E-4,-2.652348E-2,-5.2673654E-3,5.0421126E-2,-6.1769765E-2,-2.3320755E-2,-1.807007E-2,2.3664864E-2,-5.72714E-2,-4.9651712E-2,-3.4854587E-2,6.2075276E-3,5.861624E-3,5.1919635E-2,-2.8146876E-3,-4.7928847E-2,-4.5659E-2,-1.2077546E-2,-1.6279621E-2,-7.3481075E-2,-2.5183175E-2,-3.969823E-2,-1.7605074E-2,2.1003587E-2,5.768759E-2,-3.4553822E-2,3.7265723E-3,6.0067534E-2,-1.2747665E-2,-4.205531E-2,1.9832972E-2,4.8299465E-2,1.0033982E-2,-3.7538014E-2,-6.800976E-2,-2.7277905E-2,-8.1439964E-2,-2.6319055E-2,5.602665E-3,-3.1094039E-2,3.241119E-2,-5.4545607E-2,6.754189E-2,-2.5970269E-2,4.7511015E-2,-5.2893914E-2,-5.725894E-2,2.111013E-2,5.8252136E-3,-3.007009E-2],"categories":[],"categories_nodes":[],"categories_segments":[],"categories_sizes":[],"default_left":[0,0,0,0,0,0,0,0,0,0,0,0,0,0,0,0,0,0,0,0,0,0,0,0,0,0,0,0,0,0,0,0,0,0,0,0,0,0,0,0,0,0,0,0,0,0,0,0,0,0,0,0,0,0,0,0,0,0,0,0,0,0,0,0,0,0,0,0,0,0,0,0,0,0,0,0,0,0,0,0,0,0,0,0,0,0,0,0,0,0,0,0,0,0,0,0,0,0,0,0,0,0,0,0,0,0,0,0,0,0,0,0,0,0,0,0,0,0,0,0,0,0,0,0,0,0,0,0,0,0,0,0,0,0,0,0,0,0,0,0,0,0,0,0,0,0,0,0,0,0,0,0,0,0,0,0,0,0,0,0,0,0,0,0,0,0,0,0,0,0,0,0,0,0,0],"id":4,"left_children":[1,3,-1,5,7,9,11,13,15,17,19,21,23,25,27,29,31,33,35,37,39,41,-1,43,45,47,49,51,-1,53,55,57,59,61,63,65,67,69,71,-1,-1,73,75,77,79,81,83,85,87,89,91,-1,93,95,97,-1,-1,99,101,103,105,107,109,111,113,115,117,119,121,123,125,-1,-1,127,129,131,-1,133,135,137,-1,139,141,143,-1,145,147,149,151,-1,153,155,157,-1,159,161,-1,163,165,167,169,-1,-1,171,173,-1,-1,-1,-1,-1,-1,-1,-1,-1,-1,-1,-1,-1,-1,-1,-1,-1,-1,-1,-1,-1,-1,-1,-1,-1,-1,-1,-1,-1,-1,-1,-1,-1,-1,-1,-1,-1,-1,-1,-1,-1,-1,-1,-1,-1,-1,-1,-1,-1,-1,-1,-1,-1,-1,-1,-1,-1,-1,-1,-1,-1,-1,-1,-1,-1,-1,-1,-1,-1,-1],"loss_changes":[3.776327E4,6.378914E3,0E0,5.710703E2,1.6232769E3,2.2499219E2,2.185293E2,8.07967E2,4.9307043E2,1.622334E2,4.2955166E1,1.3102472E2,1.0750244E2,5.326466E2,2.380127E0,1.016084E2,2.1083972E2,5.185254E1,6.800635E1,1.5480434E1,7.5581264E0,2.7338161E1,0E0,9.192285E1,2.9285889E1,4.6137778E2,6.501053E1,1.1732178E0,0E0,6.408239E1,3.4172745E0,7.920227E1,9.641868E0,4.5367188E1,2.6434662E1,5.1453613E1,2.9195656E1,8.146664E0,5.9829397E0,0E0,0E0,9.155046E0,1.7862297E1,7.416699E1,1.3555594E1,3.004834E1,1.7497091E1,1.05814026E2,1.1476959E2,3.2213192E0,5.9578217E1,0E0,8.471794E-1,4.0495415E1,5.1163788E1,0E0,0E0,6.053894E1,2.8521194E0,9.288933E0,3.218565E0,1.4472656E0,7.3754883E0,1.7051117E1,3.4268258E0,4.1121582E1,1.10845764E2,9.964226E0,3.5732985E0,3.9832783E0,4.8206673E0,0E0,0E0,9.124983E0,3.5045528E-1,7.186163E0,0E0,1.7446777E1,2.5242332E1,8.044354E0,0E0,7.779251E1,2.9311646E1,9.393913E0,0E0,3.9348694E1,6.82912E1,2.405629E1,5.3191708E1,0E0,5.0318956E-1,3.8552216E1,6.243306E0,0E0,8.342438E-1,6.6118317E0,0E0,3.0712503E1,1.4450119E1,1.4737549E1,4.4734253E1,0E0,0E0,1.0158227E1,4.561163E0,0E0,0E0,0E0,0E0,0E0,0E0,0E0,0E0,0E0,0E0,0E0,0E0,0E0,0E0,0E0,0E0,0E0,0E0,0E0,0E0,0E0,0E0,0E0,0E0,0E0,0E0,0E0,0E0,0E0,0E0,0E0,0E0,0E0,0E0,0E0,0E0,0E0,0E0,0E0,0E0,0E0,0E0,0E0,0E0,0E0,0E0,0E0,0E0,0E0,0E0,0E0,0E0,0E0,0E0,0E0,0E0,0E0,0E0,0E0,0E0,0E0,0E0,0E0,0E0,0E0,0E0,0E0,0E0,0E0,0E0],"parents":[2147483647,0,0,1,1,3,3,4,4,5,5,6,6,7,7,8,8,9,9,10,10,11,11,12,12,13,13,14,14,15,15,16,16,17,17,18,18,19,19,20,20,21,21,23,23,24,24,25,25,26,26,27,27,29,29,30,30,31,31,32,32,33,33,34,34,35,35,36,36,37,37,38,38,41,41,42,42,43,43,44,44,45,45,46,46,47,47,48,48,49,49,50,50,52,52,53,53,54,54,57,57,58,58,59,59,60,60,61,61,62,62,63,63,64,64,65,65,66,66,67,67,68,68,69,69,70,70,73,73,74,74,75,75,77,77,78,78,79,79,81,81,82,82,83,83,85,85,86,86,87,87,88,88,90,90,91,91,92,92,94,94,95,95,97,97,98,98,99,99,100,100,103,103,104,104],"right_children":[2,4,-1,6,8,10,12,14,16,18,20,22,24,26,28,30,32,34,36,38,40,42,-1,44,46,48,50,52,-1,54,56,58,60,62,64,66,68,70,72,-1,-1,74,76,78,80,82,84,86,88,90,92,-1,94,96,98,-1,-1,100,102,104,106,108,110,112,114,116,118,120,122,124,126,-1,-1,128,130,132,-1,134,136,138,-1,140,142,144,-1,146,148,150,152,-1,154,156,158,-1,160,162,-1,164,166,168,170,-1,-1,172,174,-1,-1,-1,-1,-1,-1,-1,-1,-1,-1,-1,-1,-1,-1,-1,-1,-1,-1,-1,-1,-1,-1,-1,-1,-1,-1,-1,-1,-1,-1,-1,-1,-1,-1,-1,-1,-1,-1,-1,-1,-1,-1,-1,-1,-1,-1,-1,-1,-1,-1,-1,-1,-1,-1,-1,-1,-1,-1,-1,-1,-1,-1,-1,-1,-1,-1,-1,-1,-1,-1],"split_conditions":[1E0,1.5E1,8.438813E-2,8E0,1E0,1E0,6.4705884E-1,2E0,1.4E1,8.909091E-1,1.3E1,2E0,1.4E1,2.0588236E-1,1E0,2E0,1E0,1E0,1E0,4E0,1E0,9E0,-7.7236705E-2,1E0,1E0,2E1,8E0,7.037037E-1,-2.8481742E-2,1.5625E-1,6E-1,5E0,1E0,5.416667E-1,2E0,8.571429E-2,2E0,1E1,1.8181819E-1,4.928948E-2,-2.0407176E-2,1E0,5E0,1E0,1E0,1E0,5E0,3.121928E0,1E0,4.1666666E-1,5.5555556E-2,-7.640215E-2,3.0849626E0,1E0,1.7E1,-3.131709E-2,-8.2132034E-2,1.4705883E-1,2.2E1,3.0769232E-1,4.4E-1,1E0,1.0344828E-1,1E0,6E0,5.882353E-1,1E0,1E0,1E0,1E0,3.1068907E0,-0E0,7.873624E-2,1E0,1E0,2.5216405E0,6.718635E-2,3.2806392E0,1E0,4E0,-7.2299205E-2,1.1E1,1E0,1E0,7.836375E-2,6.166667E-1,2E0,4E0,1.5151516E-1,-7.678518E-2,5.769231E-1,2.9219282E0,4.642857E-1,-3.198744E-2,1E0,6.7741936E-1,5.9574068E-2,7.647059E-1,1E0,1E0,2E0,-1.5489623E-2,-7.801753E-2,2.0689656E-1,5.6666666E-1,1.7389156E-3,7.0315264E-2,-8.116525E-2,-2.9834112E-2,-7.1047984E-2,-5.820745E-2,-6.130272E-2,-2.478951E-2,4.1483644E-2,-1.5366862E-2,-4.5362752E-2,-6.487715E-2,1.0078439E-4,-6.170195E-2,-4.3530837E-2,-1.1670208E-2,-5.721859E-3,3.8177293E-2,-5.5988282E-2,-1.3436332E-2,9.246315E-4,-2.652348E-2,-5.2673654E-3,5.0421126E-2,-6.1769765E-2,-2.3320755E-2,-1.807007E-2,2.3664864E-2,-5.72714E-2,-4.9651712E-2,-3.4854587E-2,6.2075276E-3,5.861624E-3,5.1919635E-2,-2.8146876E-3,-4.7928847E-2,-4.5659E-2,-1.2077546E-2,-1.6279621E-2,-7.3481075E-2,-2.5183175E-2,-3.969823E-2,-1.7605074E-2,2.1003587E-2,5.768759E-2,-3.4553822E-2,3.7265723E-3,6.0067534E-2,-1.2747665E-2,-4.205531E-2,1.9832972E-2,4.8299465E-2,1.0033982E-2,-3.7538014E-2,-6.800976E-2,-2.7277905E-2,-8.1439964E-2,-2.6319055E-2,5.602665E-3,-3.1094039E-2,3.241119E-2,-5.4545607E-2,6.754189E-2,-2.5970269E-2,4.7511015E-2,-5.2893914E-2,-5.725894E-2,2.111013E-2,5.8252136E-3,-3.007009E-2],"split_indices":[2,0,0,1,7,20,41,4,1,45,0,4,0,42,37,4,58,60,15,28,5,1,0,20,7,0,1,41,0,11,41,61,36,41,15,6,15,0,10,0,0,5,27,60,37,22,5,13,65,41,6,0,13,24,0,0,0,42,0,11,11,37,6,56,1,41,22,56,22,60,12,0,0,20,24,13,0,12,56,27,0,1,15,36,0,10,5,34,42,0,10,13,10,0,15,10,0,41,36,19,4,0,0,11,29,0,0,0,0,0,0,0,0,0,0,0,0,0,0,0,0,0,0,0,0,0,0,0,0,0,0,0,0,0,0,0,0,0,0,0,0,0,0,0,0,0,0,0,0,0,0,0,0,0,0,0,0,0,0,0,0,0,0,0,0,0,0,0,0,0,0,0,0,0,0],"split_type":[0,0,0,0,0,0,0,0,0,0,0,0,0,0,0,0,0,0,0,0,0,0,0,0,0,0,0,0,0,0,0,0,0,0,0,0,0,0,0,0,0,0,0,0,0,0,0,0,0,0,0,0,0,0,0,0,0,0,0,0,0,0,0,0,0,0,0,0,0,0,0,0,0,0,0,0,0,0,0,0,0,0,0,0,0,0,0,0,0,0,0,0,0,0,0,0,0,0,0,0,0,0,0,0,0,0,0,0,0,0,0,0,0,0,0,0,0,0,0,0,0,0,0,0,0,0,0,0,0,0,0,0,0,0,0,0,0,0,0,0,0,0,0,0,0,0,0,0,0,0,0,0,0,0,0,0,0,0,0,0,0,0,0,0,0,0,0,0,0,0,0,0,0,0,0],"sum_hessian":[3.1108969E4,2.1836059E4,9.272911E3,1.3561709E4,8.27435E3,7.646267E3,5.915442E3,6.0673013E3,2.2070486E3,7.5040107E3,1.4225655E2,2.8342383E2,5.632018E3,5.5565854E3,5.1071567E2,7.0184143E2,1.5052073E3,4.3702095E3,3.133801E3,1.0524858E2,3.700797E1,2.3566354E2,4.7760296E1,4.0684446E3,1.5635732E3,4.9152095E3,6.4137585E2,5.060376E2,4.6780863E0,6.618248E2,4.001657E1,1.390788E3,1.1441926E2,3.9995447E3,3.7066483E2,2.9886052E3,1.451958E2,9.675014E1,8.498441E0,3.3278492E1,3.729477E0,1.09663E2,1.26000534E2,4.0083225E3,6.0122097E1,1.3968313E3,1.6674193E2,3.6810195E3,1.2341902E3,1.8363583E1,6.2301227E2,4.658077E2,4.0229897E1,4.50079E1,6.1681696E2,5.892724E0,3.4123848E1,1.3783192E3,1.246877E1,1.0797617E2,6.443086E0,1.8769535E3,2.1225913E3,3.6072235E2,9.942491E0,2.6627637E3,3.258417E2,1.2300845E2,2.2187351E1,3.2876495E1,6.3873642E1,4.4985814E0,3.9998593E0,1.0096918E2,8.693825E0,1.0252002E2,2.3480516E1,3.698996E3,3.0932654E2,5.6404976E1,3.7171185E0,3.833118E2,1.01351953E3,1.6299205E2,3.7498689E0,1.9012565E3,1.779763E3,1.45366E2,1.0888242E3,9.637923E0,8.725659E0,5.876403E2,3.5371937E1,6.112139E0,3.411776E1,3.8795418E1,6.212485E0,4.174661E2,1.9935088E2,7.8652325E2,5.9179596E2,3.1871674E0,9.281603E0,2.694414E1,8.1032036E1,3.22742E0,3.215666E0,1.8737687E3,3.184842E0,1.9660144E3,1.565769E2,3.226282E2,3.8094147E1,6.70819E0,3.2343006E0,3.1939792E2,2.3433657E3,1.08378784E2,2.1746292E2,8.704363E1,3.5964825E1,5.736138E0,1.6451214E1,2.4450554E1,8.4259405E0,2.6973528E1,3.6900116E1,9.399901E1,6.9701715E0,5.458046E0,3.2357783E0,1.0729526E1,9.17905E1,2.4957634E3,1.2032325E3,2.663611E2,4.29654E1,4.517298E1,1.1231997E1,1.8102798E2,2.0228381E2,9.4236646E2,7.115306E1,1.5628589E2,6.706164E0,1.0203524E3,8.8090405E2,1.6576763E3,1.2208675E2,1.3862292E2,6.7430735E0,1.0461533E3,4.2670925E1,4.9884987E0,3.737161E0,1.7001558E2,4.1762473E2,8.481614E0,2.6890322E1,3.0423014E1,3.6947458E0,3.0341402E1,8.454015E0,3.504104E2,6.7055695E1,1.9536856E2,3.982322E0,7.82845E2,3.678287E0,5.813196E2,1.0476427E1,3.9934735E0,2.2950666E1,9.486162E0,7.1545876E1],"tree_param":{"num_deleted":"0","num_feature":"68","num_nodes":"175","size_leaf_vector":"1"}},{"base_weights":[1.3191762E-3,-6.8517923E-1,8.160407E-2,-1.0941219E0,-1.6527388E-2,-1.2669168E0,-8.7254244E-1,-2.7069706E-1,6.828241E-1,-1.4055239E0,-1.077341E0,-9.115287E-1,-8.939465E-2,-1.6441466E-1,-1.4376409E0,3.3243354E-3,9.9707884E-1,-1.4425625E0,-1.0069932E0,-1.1144187E0,-3.5984042E-1,-1.0032415E0,-6.775605E-1,1.994409E-1,-7.089485E-2,-2.9330152E-1,7.224586E-1,-1.4667821E0,-1.0725315E0,-1.038154E0,1.3242155E-1,1.0270835E0,-1.3402944E0,-1.5602409E0,-1.338377E0,-1.0522295E0,6.611297E-1,-1.1782014E0,-6.8094E-1,-5.311978E-1,5.040609E-1,-1.020237E0,1.2043826E-1,-7.2234833E-1,-2.935647E-1,-2.0737505E-1,5.716864E-1,-4.8539615E-1,1.0502852E-1,2.0117088E-1,9.197927E-1,-1.4923111E0,-1.2561307E0,-1.2405173E0,-5.0555354E-1,-7.7067815E-2,-4.2717293E-1,-6.570424E-1,2.7225754E-1,-8.673401E-2,1.0936543E0,-7.776196E-2,-3.283697E-2,-7.832571E-2,-1.0538884E0,-1.353549E0,-6.8122745E-1,-1.0925469E0,5.651848E-1,5.4052122E-2,3.286219E-3,-1.242023E0,-7.0062536E-1,-1.4630417E0,-5.207201E-1,-6.002914E-1,2.0883428E-1,1.9568369E-1,8.3208054E-1,-1.057456E0,-5.8088446E-1,-4.0633857E-2,6.5924454E-1,-4.9527222E-1,-8.108367E-1,-3.411545E-1,7.414385E-2,-8.821062E-2,-6.717349E-2,3.7348905E-1,6.5386586E-2,-6.792231E-1,-3.4031284E-1,8.90601E-3,9.741222E-1,-1.1486264E0,3.4855664E-1,9.936261E-1,-2.5281894E-1,-7.488477E-2,-3.7813675E-2,-9.171578E-1,-7.2172634E-2,-6.64921E-2,-1.8702531E-2,-5.1412713E-2,1.4384973E-2,1.877774E-1,-7.527138E-1,-8.6634415E-1,-4.48062E-1,3.3354488E-1,-1.3565372E0,-1.6043709E-1,5.2366614E-2,1.1178311E0,-1.1777675E0,-7.060188E-2,4.3045342E-2,-7.1806535E-2,-6.519992E-2,-4.5112126E-2,3.924454E-3,-5.7129096E-2,-2.9578984E-2,5.5765726E-2,-6.692601E-3,-6.2594384E-2,-2.1193564E-2,1.32295E-2,-5.685128E-2,-8.225521E-2,-6.1595637E-2,-2.9847285E-2,1.5130213E-2,-4.890229E-2,-1.7874671E-2,2.7701382E-2,-6.37474E-3,3.0802136E-2,-1.1108835E-2,5.2209925E-2,1.425373E-2,-5.5539735E-2,-4.7246717E-2,-3.522178E-2,5.6253974E-3,-1.2680255E-2,1.6774988E-2,-4.3402743E-3,4.7192693E-2,1.4773341E-3,-4.7928493E-2,-4.275951E-2,-1.238517E-2,-1.4287909E-2,-7.097155E-2,-1.4825308E-3,-5.709159E-2,2.1470701E-2,-1.9617883E-2,-3.459304E-2,3.9668974E-2,-1.8488929E-4,-2.1329386E-2,-2.1625636E-3,4.7848012E-2,5.386418E-2,-1.9035995E-2,-7.144008E-2,-2.4831243E-2,1.9432552E-2,-6.2309306E-2,4.376046E-2,7.625744E-2,-2.9415762E-2,5.1279932E-2,-7.3628746E-2,-1.886366E-2,-2.3678567E-2,2.6784202E-2,-4.9355324E-2,-1.8932065E-2,-4.8179694E-2,-1.0303981E-2,-4.4780456E-2,-1.1616898E-2,1.870153E-2,-7.2282E-2,-7.850976E-2,-3.3206556E-2,1.5904022E-2,-1.8463625E-2,4.4524305E-2,6.4599745E-2,-2.7822817E-2,-7.084321E-2],"categories":[],"categories_nodes":[],"categories_segments":[],"categories_sizes":[],"default_left":[0,0,0,0,0,0,0,0,0,0,0,0,0,0,0,0,0,0,0,0,0,0,0,0,0,0,0,0,0,0,0,0,0,0,0,0,0,0,0,0,0,0,0,0,0,0,0,0,0,0,0,0,0,0,0,0,0,0,0,0,0,0,0,0,0,0,0,0,0,0,0,0,0,0,0,0,0,0,0,0,0,0,0,0,0,0,0,0,0,0,0,0,0,0,0,0,0,0,0,0,0,0,0,0,0,0,0,0,0,0,0,0,0,0,0,0,0,0,0,0,0,0,0,0,0,0,0,0,0,0,0,0,0,0,0,0,0,0,0,0,0,0,0,0,0,0,0,0,0,0,0,0,0,0,0,0,0,0,0,0,0,0,0,0,0,0,0,0,0,0,0,0,0,0,0,0,0,0,0,0,0,0,0,0,0,0,0,0,0,0,0,0,0,0,0,0,0],"id":5,"left_children":[1,3,-1,5,7,9,11,13,15,17,19,21,23,25,27,29,31,33,35,37,39,41,43,45,-1,47,49,51,53,55,57,59,61,63,65,67,69,71,73,75,77,79,81,83,85,87,89,91,93,95,97,99,101,103,105,-1,107,109,111,113,115,-1,-1,-1,117,119,121,123,125,-1,-1,127,129,131,133,135,137,139,141,143,145,147,149,151,153,155,-1,157,-1,159,-1,161,163,165,167,169,171,173,175,-1,-1,177,-1,-1,-1,-1,-1,179,181,183,185,187,189,191,-1,193,195,-1,-1,-1,-1,-1,-1,-1,-1,-1,-1,-1,-1,-1,-1,-1,-1,-1,-1,-1,-1,-1,-1,-1,-1,-1,-1,-1,-1,-1,-1,-1,-1,-1,-1,-1,-1,-1,-1,-1,-1,-1,-1,-1,-1,-1,-1,-1,-1,-1,-1,-1,-1,-1,-1,-1,-1,-1,-1,-1,-1,-1,-1,-1,-1,-1,-1,-1,-1,-1,-1,-1,-1,-1,-1,-1,-1,-1,-1,-1,-1],"loss_changes":[3.4435902E4,5.918996E3,0E0,5.1295605E2,1.4605707E3,1.9647363E2,1.7960986E2,7.4707776E2,4.6758954E2,6.257715E1,8.43396E1,1.19512695E2,1.0802769E2,6.316997E2,3.5233154E0,9.331887E1,1.06368774E2,4.64375E1,2.8942657E1,8.288257E1,2.3719276E1,7.7121826E1,2.6910278E1,3.5166805E1,0E0,3.692586E2,7.183673E1,3.390503E-1,3.1170044E0,2.2675102E1,6.838521E1,1.0987012E2,1.6035843E0,4.005371E0,2.0004639E1,2.4431946E1,2.420776E0,7.948755E1,4.8119003E1,6.952957E0,2.4286304E0,6.4098145E1,5.3661194E0,2.7934021E1,1.4532064E1,1.4775973E1,1.7013302E1,9.120978E1,1.3107997E2,3.8910316E1,4.4328674E1,2.5482178E-1,2.0441055E0,1.7250137E0,5.0253987E0,0E0,7.412493E0,3.557228E0,5.2855694E1,7.1222525E0,7.796631E1,0E0,0E0,0E0,1.9136932E1,6.324951E0,8.54661E0,8.072296E0,3.8857477E0,0E0,0E0,1.810498E1,1.3265976E2,4.602356E-1,2.0715279E1,1.0688889E1,1.5013008E0,2.8449583E0,1.0130224E0,2.0687988E1,2.6890732E1,3.8910313E0,3.1818843E0,9.741478E1,2.5092834E1,9.205975E0,0E0,6.122714E0,0E0,4.3238955E0,0E0,2.6448853E1,5.4090134E1,7.01058E1,2.2321777E1,2.6164684E0,1.1633873E1,2.8538025E1,1.37799015E1,0E0,0E0,6.196678E0,0E0,0E0,0E0,0E0,0E0,3.2897923E0,1.582613E0,2.5904388E0,4.405015E0,3.700875E1,1.5758972E0,8.124014E0,0E0,5.334143E1,1.264019E0,0E0,0E0,0E0,0E0,0E0,0E0,0E0,0E0,0E0,0E0,0E0,0E0,0E0,0E0,0E0,0E0,0E0,0E0,0E0,0E0,0E0,0E0,0E0,0E0,0E0,0E0,0E0,0E0,0E0,0E0,0E0,0E0,0E0,0E0,0E0,0E0,0E0,0E0,0E0,0E0,0E0,0E0,0E0,0E0,0E0,0E0,0E0,0E0,0E0,0E0,0E0,0E0,0E0,0E0,0E0,0E0,0E0,0E0,0E0,0E0,0E0,0E0,0E0,0E0,0E0,0E0,0E0,0E0,0E0,0E0,0E0,0E0,0E0,0E0,0E0,0E0,0E0,0E0,0E0,0E0],"parents":[2147483647,0,0,1,1,3,3,4,4,5,5,6,6,7,7,8,8,9,9,10,10,11,11,12,12,13,13,14,14,15,15,16,16,17,17,18,18,19,19,20,20,21,21,22,22,23,23,25,25,26,26,27,27,28,28,29,29,30,30,31,31,32,32,33,33,34,34,35,35,36,36,37,37,38,38,39,39,40,40,41,41,42,42,43,43,44,44,45,45,46,46,47,47,48,48,49,49,50,50,51,51,52,52,53,53,54,54,56,56,57,57,58,58,59,59,60,60,64,64,65,65,66,66,67,67,68,68,71,71,72,72,73,73,74,74,75,75,76,76,77,77,78,78,79,79,80,80,81,81,82,82,83,83,84,84,85,85,87,87,89,89,91,91,92,92,93,93,94,94,95,95,96,96,97,97,98,98,101,101,107,107,108,108,109,109,110,110,111,111,112,112,113,113,115,115,116,116],"right_children":[2,4,-1,6,8,10,12,14,16,18,20,22,24,26,28,30,32,34,36,38,40,42,44,46,-1,48,50,52,54,56,58,60,62,64,66,68,70,72,74,76,78,80,82,84,86,88,90,92,94,96,98,100,102,104,106,-1,108,110,112,114,116,-1,-1,-1,118,120,122,124,126,-1,-1,128,130,132,134,136,138,140,142,144,146,148,150,152,154,156,-1,158,-1,160,-1,162,164,166,168,170,172,174,176,-1,-1,178,-1,-1,-1,-1,-1,180,182,184,186,188,190,192,-1,194,196,-1,-1,-1,-1,-1,-1,-1,-1,-1,-1,-1,-1,-1,-1,-1,-1,-1,-1,-1,-1,-1,-1,-1,-1,-1,-1,-1,-1,-1,-1,-1,-1,-1,-1,-1,-1,-1,-1,-1,-1,-1,-1,-1,-1,-1,-1,-1,-1,-1,-1,-1,-1,-1,-1,-1,-1,-1,-1,-1,-1,-1,-1,-1,-1,-1,-1,-1,-1,-1,-1,-1,-1,-1,-1,-1,-1,-1,-1,-1,-1],"split_conditions":[1E0,1.5E1,8.160407E-2,8E0,1E0,8.909091E-1,4E0,2E0,1.8E1,1E0,1E0,1.4E1,2E0,4E0,1E0,2.9411766E-1,2E0,5.416667E-1,2E0,4E0,2E0,1E0,1E0,9E0,-7.089485E-2,1.9E1,2.9219282E0,6.923077E-1,3E0,8.148148E-1,3E0,3E0,3.7254806E0,1E0,1E0,1E0,6.086956E-1,2.5641026E-2,4.1666666E-1,1E0,3.1280854E0,1E0,4E0,1E0,2.9411766E-1,2.5641026E-2,5E0,3.4058223E0,2.5641026E-2,8E0,5.5555556E-2,3.8365917E0,5.882353E-1,7.647059E-1,3.1751232E0,-7.7067815E-2,7.037037E-1,3.189898E0,2E0,1E0,3E0,-7.776196E-2,-3.283697E-2,-7.832571E-2,8.360656E-1,9E0,3E0,1E0,5.151515E-1,5.4052122E-2,3.286219E-3,1E0,1E0,3.6363637E-1,1.4E1,1E0,3.182006E0,6.7741936E-1,2.6416042E0,6.818182E-1,1E0,3.7931034E-1,1.3E1,1.1E1,1E0,1E0,7.414385E-2,7.6E-1,-6.717349E-2,2.5641026E-2,6.5386586E-2,1E0,1E0,1E0,3E0,3.4565647E0,1.15384616E-1,5E0,7.1428573E-1,-7.488477E-2,-3.7813675E-2,5.862069E-1,-7.2172634E-2,-6.64921E-2,-1.8702531E-2,-5.1412713E-2,1.4384973E-2,8.245614E-1,3.5E0,1E0,3.1034482E-1,1E0,6E0,5.3333336E-1,5.2366614E-2,8.095238E-1,5E0,-7.060188E-2,4.3045342E-2,-7.1806535E-2,-6.519992E-2,-4.5112126E-2,3.924454E-3,-5.7129096E-2,-2.9578984E-2,5.5765726E-2,-6.692601E-3,-6.2594384E-2,-2.1193564E-2,1.32295E-2,-5.685128E-2,-8.225521E-2,-6.1595637E-2,-2.9847285E-2,1.5130213E-2,-4.890229E-2,-1.7874671E-2,2.7701382E-2,-6.37474E-3,3.0802136E-2,-1.1108835E-2,5.2209925E-2,1.425373E-2,-5.5539735E-2,-4.7246717E-2,-3.522178E-2,5.6253974E-3,-1.2680255E-2,1.6774988E-2,-4.3402743E-3,4.7192693E-2,1.4773341E-3,-4.7928493E-2,-4.275951E-2,-1.238517E-2,-1.4287909E-2,-7.097155E-2,-1.4825308E-3,-5.709159E-2,2.1470701E-2,-1.9617883E-2,-3.459304E-2,3.9668974E-2,-1.8488929E-4,-2.1329386E-2,-2.1625636E-3,4.7848012E-2,5.386418E-2,-1.9035995E-2,-7.144008E-2,-2.4831243E-2,1.9432552E-2,-6.2309306E-2,4.376046E-2,7.625744E-2,-2.9415762E-2,5.1279932E-2,-7.3628746E-2,-1.886366E-2,-2.3678567E-2,2.6784202E-2,-4.9355324E-2,-1.8932065E-2,-4.8179694E-2,-1.0303981E-2,-4.4780456E-2,-1.1616898E-2,1.870153E-2,-7.2282E-2,-7.850976E-2,-3.3206556E-2,1.5904022E-2,-1.8463625E-2,4.4524305E-2,6.4599745E-2,-2.7822817E-2,-7.084321E-2],"split_indices":[2,0,0,1,7,45,21,4,0,60,15,0,4,21,60,50,4,41,15,21,15,59,7,1,0,0,13,41,27,45,21,21,12,7,25,63,41,6,41,59,12,60,27,22,6,6,27,12,6,1,6,12,29,29,13,0,10,13,4,36,34,0,0,0,45,0,27,56,10,0,0,59,22,41,0,22,12,10,13,50,56,11,0,1,15,36,0,10,0,6,0,59,22,36,61,12,6,27,41,0,0,10,0,0,0,0,0,45,12,60,11,36,21,50,0,41,61,0,0,0,0,0,0,0,0,0,0,0,0,0,0,0,0,0,0,0,0,0,0,0,0,0,0,0,0,0,0,0,0,0,0,0,0,0,0,0,0,0,0,0,0,0,0,0,0,0,0,0,0,0,0,0,0,0,0,0,0,0,0,0,0,0,0,0,0,0,0,0,0,0,0,0,0,0,0,0,0],"split_type":[0,0,0,0,0,0,0,0,0,0,0,0,0,0,0,0,0,0,0,0,0,0,0,0,0,0,0,0,0,0,0,0,0,0,0,0,0,0,0,0,0,0,0,0,0,0,0,0,0,0,0,0,0,0,0,0,0,0,0,0,0,0,0,0,0,0,0,0,0,0,0,0,0,0,0,0,0,0,0,0,0,0,0,0,0,0,0,0,0,0,0,0,0,0,0,0,0,0,0,0,0,0,0,0,0,0,0,0,0,0,0,0,0,0,0,0,0,0,0,0,0,0,0,0,0,0,0,0,0,0,0,0,0,0,0,0,0,0,0,0,0,0,0,0,0,0,0,0,0,0,0,0,0,0,0,0,0,0,0,0,0,0,0,0,0,0,0,0,0,0,0,0,0,0,0,0,0,0,0,0,0,0,0,0,0,0,0,0,0,0,0,0,0,0,0,0,0],"sum_hessian":[3.075756E4,2.1645865E4,9.111694E3,1.3430861E4,8.215005E3,7.5432344E3,5.887627E3,6.0257754E3,2.1892292E3,4.3533604E3,3.1898738E3,5.608153E3,2.7947382E2,5.523899E3,5.018766E2,6.927196E2,1.4965096E3,3.980547E3,3.7281342E2,3.032474E3,1.5739954E2,4.02621E3,1.5819431E3,2.3019969E2,4.9274128E1,4.8236704E3,7.0022864E2,4.6173224E2,4.014434E1,7.5534744E1,6.171849E2,1.4781382E3,1.8371365E1,1.8622186E3,2.1183284E3,3.6338815E2,9.425252E0,2.641806E3,3.9066818E2,1.3176453E2,2.5635006E1,3.9664001E3,5.9809696E1,1.4156819E3,1.6626125E2,1.1007562E2,1.2012408E2,3.2543115E3,1.569359E3,1.92977E2,5.0725165E2,4.0597293E2,5.575933E1,2.9916328E1,1.0228013E1,4.049596E1,3.503878E1,9.220646E1,5.2497845E2,8.326129E1,1.394877E3,1.2894999E1,5.476366E0,1.8371664E3,2.5052275E1,2.0693406E3,4.8987976E1,3.5492722E2,8.460958E0,4.9503784E0,4.4748735E0,2.3287856E3,3.1302026E2,6.493534E1,3.2573285E2,1.2080907E2,1.095546E1,1.419317E1,1.1441836E1,3.655127E3,3.1127338E2,4.661383E1,1.3195868E1,3.991423E2,1.01653955E3,1.6276512E2,3.496129E0,1.00680916E2,9.394709E0,9.593471E1,2.418937E1,1.3912593E3,1.8630521E3,1.4140852E3,1.5527373E2,1.8261509E1,1.747155E2,4.774283E2,2.982331E1,4.018625E2,4.110419E0,2.213479E1,3.3624542E1,2.6531023E1,3.3853052E0,6.062827E0,4.1651855E0,1.2168448E1,2.2870333E1,4.4257145E1,4.7949314E1,5.0676672E2,1.8211706E1,7.9069275E1,4.192013E0,1.3807324E3,1.414452E1,2.1369963E1,3.6823127E0,7.6476776E2,1.3045728E3,3.7904816E1,1.1083161E1,3.213513E2,3.357592E1,4.4815826E0,3.9793746E0,2.3003965E3,2.8389143E1,9.751171E1,2.1550856E2,3.265909E1,3.227625E1,2.9849393E2,2.723894E1,4.59219E1,7.488716E1,5.233784E0,5.721676E0,6.9582987E0,7.2348714E0,7.4580183E0,3.983818E0,2.4730618E3,1.1820652E3,2.6430658E2,4.6966816E1,3.0139893E1,1.6473938E1,3.7388399E0,9.457027E0,1.8748338E2,2.1165892E2,9.416751E2,7.486444E1,1.561031E2,6.662024E0,9.644365E1,4.237262E0,8.993704E1,5.9976635E0,1.3800144E3,1.1244968E1,3.8053534E2,1.4825167E3,1.3411506E3,7.293461E1,1.4454625E2,1.0727474E1,1.1832234E1,6.4292755E0,1.712295E2,3.485987E0,3.927607E2,8.4667625E1,2.4113274E1,5.7100368E0,9.967611E0,1.2167179E1,3.9710655E0,8.197383E0,1.2888377E1,9.9819565E0,3.8042976E1,6.2141705E0,1.4419346E1,3.352997E1,4.9631888E2,1.04478445E1,1.2838061E1,5.373644E0,2.3718845E1,5.535043E1,6.0182526E2,7.7890717E2,4.9714355E0,9.173084E0],"tree_param":{"num_deleted":"0","num_feature":"68","num_nodes":"197","size_leaf_vector":"1"}},{"base_weights":[-2.142957E-3,-6.6100925E-1,7.912627E-2,-1.0525093E0,-2.4720132E-2,-1.2248483E0,-8.4189904E-1,-2.6617372E-1,6.436549E-1,-1.2515075E0,-4.8463565E-1,-7.8887963E-1,-1.4919716E0,-1.627824E-1,-1.3957843E0,-5.5710296E-3,9.428174E-1,-1.4525378E0,-1.1723796E0,-6.4986503E-1,5.5624384E-1,-8.5237205E-1,-8.432307E-2,-1.5015484E0,-7.760101E-3,-2.8741342E-1,6.913395E-1,-7.1245335E-2,-1.015205E0,-1.0556376E0,1.1614848E-1,-1.5168998E-1,1.010525E0,-1.4921931E0,-1.1035675E0,-1.2163799E0,-8.275357E-1,-6.932703E-1,3.5714978E-1,6.393782E-1,-4.893306E-3,-9.3356454E-1,-6.6542536E-1,-3.285598E-1,5.8337206E-1,-7.544519E-2,-4.4188917E-2,-4.679778E-1,8.5002966E-2,-9.4829404E-1,7.3338306E-1,-1.104767E0,-4.4186437E-3,-1.2009544E0,6.888487E-2,-5.40612E-1,2.3119172E-1,-3.0684292E-1,4.9645635E-1,1.0454247E0,-1.2217162E0,-7.568737E-2,-6.9793485E-2,-1.2383828E0,-9.983781E-1,-1.2239875E0,-3.611153E-1,-4.583453E-1,-1.088789E0,-7.496722E-1,1.6300683E-1,-5.99564E-3,5.134207E-2,2.7248308E-1,9.0434676E-1,-9.5197314E-1,1.5212293E-1,-7.1062386E-1,-2.7341804E-1,-7.302862E-2,-2.6169702E-1,4.0604916E-1,6.447117E-2,-6.479884E-1,-3.3199224E-1,-3.5347326E-3,9.201651E-1,-7.061535E-2,-3.7038937E-1,7.9099226E-1,-3.169617E-1,-6.353528E-2,-6.22519E-1,-7.755792E-2,-6.497677E-1,-9.0753436E-1,-4.0447074E-1,2.94322E-1,-1.3763978E0,1.8481444E-1,-5.0383085E-1,2.1513993E-1,6.4765215E-2,1.0705997E0,-1.1290628E0,-6.871661E-2,-1.1707757E-2,-6.6293284E-2,-4.902127E-2,-5.1595062E-2,-1.8383345E-2,-6.1828077E-2,-4.577539E-2,1.4706961E-2,-3.4726396E-2,1.5081669E-2,-5.7421397E-2,-5.509872E-2,2.439263E-4,-4.6174478E-2,-2.5022522E-2,3.7426535E-2,-1.9746017E-2,3.6721963E-2,-1.0487399E-2,5.403888E-2,1.770474E-2,-4.906217E-2,-3.0205581E-2,1.4034718E-2,-6.9858335E-2,-2.4745E-2,-3.9706968E-2,-1.5862308E-2,7.018869E-2,-1.432878E-2,8.188956E-2,2.3820201E-2,-2.2554824E-2,-3.4882512E-2,-4.4823317E-3,-1.0248825E-2,-2.9523114E-2,-2.667526E-3,4.2928733E-2,5.1351875E-2,-2.6196638E-2,-4.3482333E-2,8.897898E-3,4.0975403E-2,-5.5731118E-2,-3.2519933E-2,1.8241266E-2,3.196908E-3,-4.6696123E-2,-4.4679582E-2,3.2321464E-2,-5.053125E-2,-1.6317569E-2,3.7589073E-3,-2.6264502E-2,1.6577573E-2,-6.8969615E-2,-7.5004384E-2,-2.5677338E-2,3.2090247E-2,-3.3308737E-2,1.8917257E-2,-2.941827E-2,-1.8939419E-2,3.2789987E-2,4.332316E-2,6.255768E-2,6.522093E-3,-7.308028E-2],"categories":[],"categories_nodes":[],"categories_segments":[],"categories_sizes":[],"default_left":[0,0,0,0,0,0,0,0,0,0,0,0,0,0,0,0,0,0,0,0,0,0,0,0,0,0,0,0,0,0,0,0,0,0,0,0,0,0,0,0,0,0,0,0,0,0,0,0,0,0,0,0,0,0,0,0,0,0,0,0,0,0,0,0,0,0,0,0,0,0,0,0,0,0,0,0,0,0,0,0,0,0,0,0,0,0,0,0,0,0,0,0,0,0,0,0,0,0,0,0,0,0,0,0,0,0,0,0,0,0,0,0,0,0,0,0,0,0,0,0,0,0,0,0,0,0,0,0,0,0,0,0,0,0,0,0,0,0,0,0,0,0,0,0,0,0,0,0,0,0,0,0,0,0,0,0,0,0,0,0,0,0,0,0,0,0,0,0,0,0,0,0,0,0,0],"id":6,"left_children":[1,3,-1,5,7,9,11,13,15,17,19,21,23,25,27,29,31,33,35,37,39,41,43,45,-1,47,49,-1,51,53,55,57,59,61,63,65,67,69,71,73,-1,75,77,79,81,-1,-1,83,85,87,89,91,-1,93,-1,95,97,99,101,103,105,-1,-1,107,109,111,113,115,117,119,121,-1,-1,123,125,127,129,131,133,-1,135,137,-1,139,141,143,145,-1,147,149,151,-1,153,-1,155,157,159,161,163,165,167,169,-1,171,173,-1,-1,-1,-1,-1,-1,-1,-1,-1,-1,-1,-1,-1,-1,-1,-1,-1,-1,-1,-1,-1,-1,-1,-1,-1,-1,-1,-1,-1,-1,-1,-1,-1,-1,-1,-1,-1,-1,-1,-1,-1,-1,-1,-1,-1,-1,-1,-1,-1,-1,-1,-1,-1,-1,-1,-1,-1,-1,-1,-1,-1,-1,-1,-1,-1,-1,-1,-1,-1,-1],"loss_changes":[3.1753287E4,5.3510146E3,0E0,4.8145312E2,1.3208265E3,1.4349902E2,2.0498926E2,7.0184875E2,4.219524E2,1.102832E2,4.438703E1,2.4761377E2,5.366089E0,5.866669E2,3.8950806E0,8.7900375E1,1.1043298E2,2.5611328E1,7.570215E1,9.959221E0,2.0481033E0,7.633911E1,7.503906E1,4.5788574E-1,0E0,3.2345493E2,4.905182E1,0E0,3.06567E0,2.6900444E1,4.660495E1,8.923493E0,1.1036914E2,1.296875E0,1.4754639E0,2.8632812E1,5.499652E1,1.0453384E1,3.3173246E0,2.7254467E0,0E0,7.096509E1,2.7034546E1,2.4946339E1,1.4733448E1,0E0,0E0,7.8974E1,1.1625399E2,4.104452E0,4.1738495E1,1.8905067E0,0E0,1.1896492E1,0E0,4.0937996E0,5.3542934E1,7.02754E0,3.4222054E0,7.672485E1,2.829628E0,0E0,0E0,4.1357422E-1,2.057045E0,1.5924316E1,9.233802E0,1.26812965E2,4.974701E0,8.052536E0,4.8575573E0,0E0,0E0,3.5294404E0,1.2080688E0,3.4689453E1,1.2189507E1,2.4377075E1,1.2193605E1,0E0,1.5429134E1,6.251217E0,0E0,3.847052E1,6.0452484E1,6.1002514E1,2.3844528E1,0E0,2.8063273E0,3.618454E1,8.502901E0,0E0,2.562027E0,0E0,9.52996E0,9.669399E-1,4.0861435E0,3.1864391E1,1.156498E0,8.581486E0,4.0690184E0,3.9318323E0,0E0,4.8990723E1,7.1217175E0,0E0,0E0,0E0,0E0,0E0,0E0,0E0,0E0,0E0,0E0,0E0,0E0,0E0,0E0,0E0,0E0,0E0,0E0,0E0,0E0,0E0,0E0,0E0,0E0,0E0,0E0,0E0,0E0,0E0,0E0,0E0,0E0,0E0,0E0,0E0,0E0,0E0,0E0,0E0,0E0,0E0,0E0,0E0,0E0,0E0,0E0,0E0,0E0,0E0,0E0,0E0,0E0,0E0,0E0,0E0,0E0,0E0,0E0,0E0,0E0,0E0,0E0,0E0,0E0,0E0,0E0,0E0,0E0,0E0,0E0],"parents":[2147483647,0,0,1,1,3,3,4,4,5,5,6,6,7,7,8,8,9,9,10,10,11,11,12,12,13,13,14,14,15,15,16,16,17,17,18,18,19,19,20,20,21,21,22,22,23,23,25,25,26,26,28,28,29,29,30,30,31,31,32,32,33,33,34,34,35,35,36,36,37,37,38,38,39,39,41,41,42,42,43,43,44,44,47,47,48,48,49,49,50,50,51,51,53,53,55,55,56,56,57,57,58,58,59,59,60,60,63,63,64,64,65,65,66,66,67,67,68,68,69,69,70,70,73,73,74,74,75,75,76,76,77,77,78,78,80,80,81,81,83,83,84,84,85,85,86,86,88,88,89,89,90,90,92,92,94,94,95,95,96,96,97,97,98,98,99,99,100,100,101,101,103,103,104,104],"right_children":[2,4,-1,6,8,10,12,14,16,18,20,22,24,26,28,30,32,34,36,38,40,42,44,46,-1,48,50,-1,52,54,56,58,60,62,64,66,68,70,72,74,-1,76,78,80,82,-1,-1,84,86,88,90,92,-1,94,-1,96,98,100,102,104,106,-1,-1,108,110,112,114,116,118,120,122,-1,-1,124,126,128,130,132,134,-1,136,138,-1,140,142,144,146,-1,148,150,152,-1,154,-1,156,158,160,162,164,166,168,170,-1,172,174,-1,-1,-1,-1,-1,-1,-1,-1,-1,-1,-1,-1,-1,-1,-1,-1,-1,-1,-1,-1,-1,-1,-1,-1,-1,-1,-1,-1,-1,-1,-1,-1,-1,-1,-1,-1,-1,-1,-1,-1,-1,-1,-1,-1,-1,-1,-1,-1,-1,-1,-1,-1,-1,-1,-1,-1,-1,-1,-1,-1,-1,-1,-1,-1,-1,-1,-1,-1,-1,-1],"split_conditions":[1E0,1.5E1,7.912627E-2,1.2E1,1E0,1E0,2E0,2E0,1.8E1,5E0,2E0,4E0,1E0,4E0,1E0,2.631579E-1,3E0,1.15384616E-1,1E0,1E0,1E0,1.4E1,9E0,6.1538464E-1,-7.760101E-3,1.9E1,8E0,-7.1245335E-2,3.7004397E0,1E0,3E0,4.3333334E-1,2E0,5.263158E-1,2.7254806E0,1E0,1E0,4E0,6.818182E-1,3.1068907E0,-4.893306E-3,1E0,1E0,3.6363637E-1,5E0,-7.544519E-2,-4.4188917E-2,3.4058223E0,1E0,4.1666666E-1,5.5555556E-2,6.923077E-1,-4.4186437E-3,6.7741936E-1,6.888487E-2,3.3371754E0,2E0,3.0769232E-1,1E0,3E0,3.821928E0,-7.568737E-2,-6.9793485E-2,2.173913E-2,2E0,4E0,8.235294E-1,1E0,6E0,1E0,8.125E-1,-5.99564E-3,5.134207E-2,6.296296E-1,3.4042552E-1,1E0,1E0,1E0,5E0,-7.302862E-2,3.1578946E-1,1E0,6.447117E-2,1E0,6.451613E-1,1E0,3E0,-7.061535E-2,2.9032257E-1,1E0,1E0,-6.353528E-2,3.4594316E0,-7.755792E-2,1E0,1E0,7.083333E-1,1E0,3.6368423E0,2E0,5.4545456E-1,3.5383105E0,6.4765215E-2,3.6897037E0,1E0,-6.871661E-2,-1.1707757E-2,-6.6293284E-2,-4.902127E-2,-5.1595062E-2,-1.8383345E-2,-6.1828077E-2,-4.577539E-2,1.4706961E-2,-3.4726396E-2,1.5081669E-2,-5.7421397E-2,-5.509872E-2,2.439263E-4,-4.6174478E-2,-2.5022522E-2,3.7426535E-2,-1.9746017E-2,3.6721963E-2,-1.0487399E-2,5.403888E-2,1.770474E-2,-4.906217E-2,-3.0205581E-2,1.4034718E-2,-6.9858335E-2,-2.4745E-2,-3.9706968E-2,-1.5862308E-2,7.018869E-2,-1.432878E-2,8.188956E-2,2.3820201E-2,-2.2554824E-2,-3.4882512E-2,-4.4823317E-3,-1.0248825E-2,-2.9523114E-2,-2.667526E-3,4.2928733E-2,5.1351875E-2,-2.6196638E-2,-4.3482333E-2,8.897898E-3,4.0975403E-2,-5.5731118E-2,-3.2519933E-2,1.8241266E-2,3.196908E-3,-4.6696123E-2,-4.4679582E-2,3.2321464E-2,-5.053125E-2,-1.6317569E-2,3.7589073E-3,-2.6264502E-2,1.6577573E-2,-6.8969615E-2,-7.5004384E-2,-2.5677338E-2,3.2090247E-2,-3.3308737E-2,1.8917257E-2,-2.941827E-2,-1.8939419E-2,3.2789987E-2,4.332316E-2,6.255768E-2,6.522093E-3,-7.308028E-2],"split_indices":[2,0,0,0,7,15,4,4,0,1,15,21,37,21,15,50,21,6,5,63,17,0,1,11,0,0,1,0,12,24,21,11,4,41,12,59,22,27,50,12,0,59,7,41,27,0,0,12,5,41,6,29,0,10,0,12,4,11,36,34,12,0,0,11,34,21,29,58,28,22,10,0,0,10,11,60,37,22,5,0,6,5,0,15,10,36,61,0,11,36,24,0,12,0,60,60,29,36,12,46,29,12,0,12,22,0,0,0,0,0,0,0,0,0,0,0,0,0,0,0,0,0,0,0,0,0,0,0,0,0,0,0,0,0,0,0,0,0,0,0,0,0,0,0,0,0,0,0,0,0,0,0,0,0,0,0,0,0,0,0,0,0,0,0,0,0,0,0,0,0,0,0,0,0,0],"split_type":[0,0,0,0,0,0,0,0,0,0,0,0,0,0,0,0,0,0,0,0,0,0,0,0,0,0,0,0,0,0,0,0,0,0,0,0,0,0,0,0,0,0,0,0,0,0,0,0,0,0,0,0,0,0,0,0,0,0,0,0,0,0,0,0,0,0,0,0,0,0,0,0,0,0,0,0,0,0,0,0,0,0,0,0,0,0,0,0,0,0,0,0,0,0,0,0,0,0,0,0,0,0,0,0,0,0,0,0,0,0,0,0,0,0,0,0,0,0,0,0,0,0,0,0,0,0,0,0,0,0,0,0,0,0,0,0,0,0,0,0,0,0,0,0,0,0,0,0,0,0,0,0,0,0,0,0,0,0,0,0,0,0,0,0,0,0,0,0,0,0,0,0,0,0,0],"sum_hessian":[3.041065E4,2.1480309E4,8.930341E3,1.3297642E4,8.182668E3,7.310381E3,5.9872603E3,6.0116743E3,2.170994E3,7.0554487E3,2.5493204E2,5.5379565E3,4.4930374E2,5.5087046E3,5.0296973E2,6.8502893E2,1.4859648E3,1.9874835E3,5.0679653E3,2.2041504E2,3.4516987E1,5.079827E3,4.581296E2,4.459111E2,3.3926601E0,4.8079263E3,7.007783E2,4.644244E2,3.854532E1,7.0445854E1,6.1458307E2,8.641013E1,1.3995548E3,1.7814814E3,2.0600212E2,4.4919927E3,5.759726E2,2.1170096E2,8.714077E0,3.0780348E1,3.7366405E0,3.5384983E3,1.5413289E3,3.359133E2,1.222163E2,4.3907898E2,6.832117E0,3.2380059E3,1.5699203E3,1.69218E1,6.8385657E2,3.4875355E1,3.6699631E0,6.699266E1,3.4531932E0,9.0927345E1,5.2365576E2,7.0269844E1,1.6140291E1,1.378578E3,2.0976734E1,1.4428595E3,3.3862195E2,8.514856E1,1.2085357E2,4.451845E3,4.014739E1,2.3998071E2,3.3599188E2,1.9884462E2,1.2856346E1,5.4811425E0,3.2329347E0,1.3916413E1,1.6863934E1,3.4797126E3,5.8785713E1,1.3810281E3,1.6030067E2,1.7488377E1,3.1842493E2,9.9055504E1,2.3160795E1,1.3915046E3,1.8465012E3,1.4202336E3,1.4968661E2,8.488949E0,8.432852E0,6.4862305E2,3.5233467E1,2.4576433E1,1.0298922E1,3.9744682E1,2.7247972E1,2.2874979E1,6.805237E1,5.0471466E2,1.8941095E1,1.9973246E1,5.0296597E1,1.2968051E1,3.1722403E0,1.3633475E3,1.5230447E1,1.7742012E1,3.2347229E0,6.020375E1,2.4944805E1,1.1399969E2,6.8538823E0,4.2742866E3,1.7755867E2,1.3477659E1,2.6669727E1,1.1440549E2,1.25575226E2,3.320722E2,3.9196799E0,1.1531354E2,8.3531075E1,6.193795E0,6.6625514E0,6.946417E0,6.9699965E0,1.1901876E1,4.9620585E0,3.2076982E3,2.7201428E2,5.509675E1,3.6889634E0,3.8770175E2,9.9332635E2,1.570667E2,3.2339725E0,3.151984E2,3.2265341E0,9.206004E1,6.99546E0,1.2774525E3,1.1405212E2,1.2395494E3,6.069518E2,1.343647E3,7.658666E1,1.3970557E2,9.98105E0,4.2027617E0,4.23009E0,6.3967334E2,8.949714E0,2.3790918E1,1.1442551E1,3.3617768E0,6.9371448E0,2.3260298E1,3.9876752E0,1.8654974E1,4.2200055E0,1.3602185E1,5.4450184E1,4.9457516E2,1.0139491E1,1.5819019E1,3.1220763E0,1.3231246E1,6.742E0,3.9908414E0,4.630575E1,5.486599E0,7.481452E0,6.4286676E2,7.2048083E2,3.2454286E0,1.1985018E1],"tree_param":{"num_deleted":"0","num_feature":"68","num_nodes":"175","size_leaf_vector":"1"}},{"base_weights":[3.8102989E-3,-6.2997603E-1,7.690929E-2,-1.0083307E0,-1.696567E-2,-1.1813881E0,-7.9747E-1,-2.4378489E-1,6.197686E-1,-1.2088739E0,-4.5613986E-1,-7.472049E-1,-1.4370681E0,-1.461206E-1,-1.3426768E0,-1.2282684E-3,9.121751E-1,-1.3645779E0,-1.1200188E0,-5.997049E-1,5.359137E-1,-8.0526024E-1,-1.1668529E-1,-7.234063E-2,-3.17554E-3,-2.6368806E-1,6.557018E-1,-1.3538947E0,-6.108925E-1,-9.6864444E-1,1.2096408E-1,-1.4098129E-1,9.7950786E-1,-1.3999186E0,-1.0603138E0,-1.1345773E0,-2.657116E-1,-6.706463E-1,6.709681E-1,1.0092231E0,2.4911934E-1,-8.851977E-1,-6.2441826E-1,-4.389841E-1,3.2642248E-1,-4.0697E-1,1.9067866E-1,2.2426963E-1,8.269731E-1,-1.3583708E0,-2.382092E-2,-5.129186E-2,-8.083307E-3,-1.104564E0,6.741288E-2,-5.1319176E-1,2.3998152E-1,-2.1500705E-1,5.0767906E-2,1.0116966E0,-1.1848735E0,-1.4311087E0,-1.0578004E0,-1.3592257E0,-1.0063047E0,-1.1676635E0,-8.702028E-1,-4.1735038E-1,7.935816E-1,-1.0292993E0,-5.0745535E-1,6.0772337E-2,1.777212E-3,6.3701235E-2,2.3048487E-2,3.0501215E-2,3.5606895E-2,-9.036929E-1,1.6680875E-1,-6.6595984E-1,-2.7387527E-1,-5.304903E-1,2.3943155E-1,2.1050403E-1,1.1039672E0,-5.5583525E-1,-2.4341284E-1,1.0014112E-1,9.7273856E-1,3.406962E-1,-1.0856271E0,8.883029E-1,-1.1670508E-1,-6.816318E-2,-3.689438E-2,-7.453097E-2,-5.843946E-1,-7.770761E-1,-2.675531E-1,2.9207283E-1,-1.1971638E0,3.6059228E-1,-4.0339884E-1,1.03234E0,-9.963946E-1,-1.0563464E-2,-1.3496958E0,-7.4240826E-2,-6.624529E-2,-4.8921783E-2,-6.1500985E-2,-7.1893364E-2,-2.7757883E-2,-5.7869077E-2,-4.3712664E-2,-6.0423374E-2,-5.4894723E-2,-2.511165E-2,-5.3709336E-2,-2.8852168E-2,2.1078294E-2,-7.9908915E-4,7.554703E-2,-6.1426528E-2,-2.3485892E-2,-3.6455873E-2,-1.2394982E-2,-4.1929062E-2,1.724406E-2,-4.6888042E-2,-2.571912E-2,1.4850429E-2,-6.827822E-2,-2.4059558E-2,-3.6836803E-2,-3.7554823E-2,-4.2679175E-3,-3.5760827E-2,-7.903471E-3,2.0170337E-2,-3.976314E-2,4.0926635E-3,4.2020645E-2,3.6883578E-2,6.323483E-2,-2.9985989E-2,-4.7536767E-3,-4.1471426E-3,-2.0645846E-2,2.7898478E-3,4.2268973E-2,7.323145E-2,3.2695808E-2,3.6765554E-3,2.4460655E-2,-7.11312E-2,-5.1976503E-3,3.922544E-2,6.872272E-2,-2.0394295E-2,4.1265156E-2,-3.8416598E-2,2.9152004E-2,-5.683976E-2,-3.188613E-2,-8.0832355E-3,-4.6845328E-2,9.379828E-3,4.4640336E-2,-7.362738E-2,-2.1593397E-2,-3.7091333E-2,3.0487001E-2,3.5556607E-2,-2.5891468E-2,3.9647788E-2,5.9859395E-2,-6.5896824E-2,3.5238524E-3,-7.29225E-2,-3.2303955E-2],"categories":[],"categories_nodes":[],"categories_segments":[],"categories_sizes":[],"default_left":[0,0,0,0,0,0,0,0,0,0,0,0,0,0,0,0,0,0,0,0,0,0,0,0,0,0,0,0,0,0,0,0,0,0,0,0,0,0,0,0,0,0,0,0,0,0,0,0,0,0,0,0,0,0,0,0,0,0,0,0,0,0,0,0,0,0,0,0,0,0,0,0,0,0,0,0,0,0,0,0,0,0,0,0,0,0,0,0,0,0,0,0,0,0,0,0,0,0,0,0,0,0,0,0,0,0,0,0,0,0,0,0,0,0,0,0,0,0,0,0,0,0,0,0,0,0,0,0,0,0,0,0,0,0,0,0,0,0,0,0,0,0,0,0,0,0,0,0,0,0,0,0,0,0,0,0,0,0,0,0,0,0,0,0,0,0,0,0,0,0,0,0,0,0,0,0,0,0,0,0,0],"id":7,"left_children":[1,3,-1,5,7,9,11,13,15,17,19,21,23,25,27,29,31,33,35,37,39,41,43,-1,-1,45,47,49,51,53,55,57,59,61,63,65,67,69,71,73,75,77,79,81,83,85,87,89,91,93,-1,-1,-1,95,-1,97,99,101,-1,103,105,107,109,111,113,115,117,119,121,123,125,-1,-1,-1,-1,-1,127,129,131,133,135,137,139,141,143,145,147,149,151,153,155,157,159,-1,-1,-1,161,163,165,167,169,171,173,175,177,-1,179,-1,-1,-1,-1,-1,-1,-1,-1,-1,-1,-1,-1,-1,-1,-1,-1,-1,-1,-1,-1,-1,-1,-1,-1,-1,-1,-1,-1,-1,-1,-1,-1,-1,-1,-1,-1,-1,-1,-1,-1,-1,-1,-1,-1,-1,-1,-1,-1,-1,-1,-1,-1,-1,-1,-1,-1,-1,-1,-1,-1,-1,-1,-1,-1,-1,-1,-1,-1,-1,-1,-1,-1,-1,-1],"loss_changes":[2.9184436E4,4.9257324E3,0E0,4.7807715E2,1.1709009E3,1.430127E2,1.8912915E2,6.412488E2,3.8676257E2,9.4328125E1,3.8073666E1,2.0090918E2,5.5167847E0,5.178026E2,2.9804077E0,8.0890564E1,1.0289197E2,2.5354004E1,5.463916E1,2.1370384E1,4.2304525E0,7.201294E1,6.649091E1,0E0,0E0,3.119434E2,5.1611084E1,1.0523682E0,1.4528329E0,2.5634338E1,4.589687E1,7.652981E0,9.600476E1,2.228125E1,2.698578E0,3.6864258E1,1.2441183E1,1.2222763E1,4.224599E0,1.0319128E0,1.6549263E0,6.804126E1,2.2232178E1,1.6884197E1,1.7305098E1,8.846399E1,8.114353E1,3.09706E1,2.924942E1,2.300415E-1,0E0,0E0,0E0,1.3598358E1,0E0,5.9154434E0,3.8570477E1,9.195043E0,0E0,5.6651367E1,2.8259811E0,9.513184E0,1.204956E0,1.383461E0,3.3711243E0,9.449707E0,3.597296E1,9.220351E0,5.8255787E0,6.8067474E0,8.560375E0,0E0,0E0,0E0,0E0,0E0,4.4124227E0,4.480493E1,1.2463073E1,1.7582947E1,1.4761131E1,1.6164658E1,5.8101673E0,1.3773376E1,3.4376335E-1,3.840558E1,4.7177757E1,3.3931396E1,1.748883E1,7.270218E0,5.186859E0,2.2513947E1,8.9171715E0,0E0,0E0,0E0,7.529278E0,1.3833065E0,3.3874686E0,3.0774597E1,2.9733086E0,6.197793E0,8.440863E0,5.1280518E1,5.0587244E0,0E0,1.587677E-1,0E0,0E0,0E0,0E0,0E0,0E0,0E0,0E0,0E0,0E0,0E0,0E0,0E0,0E0,0E0,0E0,0E0,0E0,0E0,0E0,0E0,0E0,0E0,0E0,0E0,0E0,0E0,0E0,0E0,0E0,0E0,0E0,0E0,0E0,0E0,0E0,0E0,0E0,0E0,0E0,0E0,0E0,0E0,0E0,0E0,0E0,0E0,0E0,0E0,0E0,0E0,0E0,0E0,0E0,0E0,0E0,0E0,0E0,0E0,0E0,0E0,0E0,0E0,0E0,0E0,0E0,0E0,0E0,0E0,0E0,0E0,0E0,0E0,0E0],"parents":[2147483647,0,0,1,1,3,3,4,4,5,5,6,6,7,7,8,8,9,9,10,10,11,11,12,12,13,13,14,14,15,15,16,16,17,17,18,18,19,19,20,20,21,21,22,22,25,25,26,26,27,27,28,28,29,29,30,30,31,31,32,32,33,33,34,34,35,35,36,36,37,37,38,38,39,39,40,40,41,41,42,42,43,43,44,44,45,45,46,46,47,47,48,48,49,49,53,53,55,55,56,56,57,57,59,59,60,60,61,61,62,62,63,63,64,64,65,65,66,66,67,67,68,68,69,69,70,70,76,76,77,77,78,78,79,79,80,80,81,81,82,82,83,83,84,84,85,85,86,86,87,87,88,88,89,89,90,90,91,91,92,92,96,96,97,97,98,98,99,99,100,100,101,101,102,102,103,103,104,104,106,106],"right_children":[2,4,-1,6,8,10,12,14,16,18,20,22,24,26,28,30,32,34,36,38,40,42,44,-1,-1,46,48,50,52,54,56,58,60,62,64,66,68,70,72,74,76,78,80,82,84,86,88,90,92,94,-1,-1,-1,96,-1,98,100,102,-1,104,106,108,110,112,114,116,118,120,122,124,126,-1,-1,-1,-1,-1,128,130,132,134,136,138,140,142,144,146,148,150,152,154,156,158,160,-1,-1,-1,162,164,166,168,170,172,174,176,178,-1,180,-1,-1,-1,-1,-1,-1,-1,-1,-1,-1,-1,-1,-1,-1,-1,-1,-1,-1,-1,-1,-1,-1,-1,-1,-1,-1,-1,-1,-1,-1,-1,-1,-1,-1,-1,-1,-1,-1,-1,-1,-1,-1,-1,-1,-1,-1,-1,-1,-1,-1,-1,-1,-1,-1,-1,-1,-1,-1,-1,-1,-1,-1,-1,-1,-1,-1,-1,-1,-1,-1,-1,-1,-1,-1],"split_conditions":[1E0,1.5E1,7.690929E-2,1.2E1,1E0,1E0,2E0,2E0,1.8E1,8.77551E-1,2E0,4E0,1E0,4E0,3.5849626E0,2.9411766E-1,3E0,1E0,1E0,1E0,6.0714287E-1,1.4E1,1.4E1,-7.234063E-2,-3.17554E-3,2E1,2.9219282E0,1E0,6.296296E-1,1E0,3E0,1E0,2E0,1E0,8.235294E-1,1E0,4E0,2E0,5.151515E-1,1.1E1,6.086956E-1,1E0,1E0,1E0,5E0,3.1395721E0,1E0,8E0,1E0,1E0,-2.382092E-2,-5.129186E-2,-8.083307E-3,8.148148E-1,6.741288E-2,3.188722E0,2E0,3.0769232E-1,5.0767906E-2,3E0,4.040404E-2,5.263158E-1,6.7741936E-1,2.321928E0,8E0,1.1E1,1E0,2.6416042E0,1.8181819E-1,9E-1,1E0,6.0772337E-2,1.777212E-3,6.3701235E-2,2.3048487E-2,3.0501215E-2,2.0689656E-1,1E0,1E0,1E0,3E0,5.882353E-1,2E0,1E0,7.894737E-1,1E0,6.166667E-1,1E0,1E0,1.6E1,1.1E1,5E0,7.1428573E-1,-6.816318E-2,-3.689438E-2,-7.453097E-2,4E0,2.9219282E0,3.4193819E0,1E0,6E0,3.0769232E-1,5.4545456E-1,2.1E1,8.9361703E-1,-1.0563464E-2,3.3927474E0,-7.4240826E-2,-6.624529E-2,-4.8921783E-2,-6.1500985E-2,-7.1893364E-2,-2.7757883E-2,-5.7869077E-2,-4.3712664E-2,-6.0423374E-2,-5.4894723E-2,-2.511165E-2,-5.3709336E-2,-2.8852168E-2,2.1078294E-2,-7.9908915E-4,7.554703E-2,-6.1426528E-2,-2.3485892E-2,-3.6455873E-2,-1.2394982E-2,-4.1929062E-2,1.724406E-2,-4.6888042E-2,-2.571912E-2,1.4850429E-2,-6.827822E-2,-2.4059558E-2,-3.6836803E-2,-3.7554823E-2,-4.2679175E-3,-3.5760827E-2,-7.903471E-3,2.0170337E-2,-3.976314E-2,4.0926635E-3,4.2020645E-2,3.6883578E-2,6.323483E-2,-2.9985989E-2,-4.7536767E-3,-4.1471426E-3,-2.0645846E-2,2.7898478E-3,4.2268973E-2,7.323145E-2,3.2695808E-2,3.6765554E-3,2.4460655E-2,-7.11312E-2,-5.1976503E-3,3.922544E-2,6.872272E-2,-2.0394295E-2,4.1265156E-2,-3.8416598E-2,2.9152004E-2,-5.683976E-2,-3.188613E-2,-8.0832355E-3,-4.6845328E-2,9.379828E-3,4.4640336E-2,-7.362738E-2,-2.1593397E-2,-3.7091333E-2,3.0487001E-2,3.5556607E-2,-2.5891468E-2,3.9647788E-2,5.9859395E-2,-6.5896824E-2,3.5238524E-3,-7.29225E-2,-3.2303955E-2],"split_indices":[2,0,0,0,7,15,4,4,0,45,15,21,37,21,13,50,21,55,20,63,10,0,0,0,0,0,13,35,10,24,21,36,4,7,29,5,28,27,10,0,41,20,7,20,27,13,5,21,5,37,0,0,0,45,0,13,4,11,0,34,8,41,10,13,0,0,22,13,10,29,22,0,0,0,0,0,11,60,37,22,21,41,5,20,29,15,10,36,22,0,21,27,41,0,0,0,21,13,13,18,21,50,29,0,45,0,13,0,0,0,0,0,0,0,0,0,0,0,0,0,0,0,0,0,0,0,0,0,0,0,0,0,0,0,0,0,0,0,0,0,0,0,0,0,0,0,0,0,0,0,0,0,0,0,0,0,0,0,0,0,0,0,0,0,0,0,0,0,0,0,0,0,0,0,0,0,0,0,0,0,0],"split_type":[0,0,0,0,0,0,0,0,0,0,0,0,0,0,0,0,0,0,0,0,0,0,0,0,0,0,0,0,0,0,0,0,0,0,0,0,0,0,0,0,0,0,0,0,0,0,0,0,0,0,0,0,0,0,0,0,0,0,0,0,0,0,0,0,0,0,0,0,0,0,0,0,0,0,0,0,0,0,0,0,0,0,0,0,0,0,0,0,0,0,0,0,0,0,0,0,0,0,0,0,0,0,0,0,0,0,0,0,0,0,0,0,0,0,0,0,0,0,0,0,0,0,0,0,0,0,0,0,0,0,0,0,0,0,0,0,0,0,0,0,0,0,0,0,0,0,0,0,0,0,0,0,0,0,0,0,0,0,0,0,0,0,0,0,0,0,0,0,0,0,0,0,0,0,0,0,0,0,0,0,0],"sum_hessian":[3.0008658E4,2.1237047E4,8.771611E3,1.3131424E4,8.1056226E3,7.2094277E3,5.921996E3,5.977187E3,2.1284355E3,6.9454033E3,2.6402435E2,5.4926606E3,4.2933536E2,5.4904463E3,4.8674084E2,6.815822E2,1.4468533E3,2.5178313E3,4.427572E3,2.3107991E2,3.2944447E1,5.029163E3,4.634977E2,4.2618576E2,3.1496034E0,4.7890464E3,7.013996E2,4.7842007E2,8.320757E0,7.574985E1,6.0583234E2,8.678975E1,1.3600636E3,2.2522952E3,2.6553625E2,4.352947E3,7.4624794E1,2.1938275E2,1.1697171E1,1.1348257E1,2.159619E1,3.484475E3,1.544688E3,2.684633E2,1.9503444E2,3.641154E3,1.1478926E3,2.0014014E2,5.012595E2,4.7533334E2,3.0867345E0,3.5424616E0,4.7782955E0,7.208731E1,3.662536E0,9.507831E1,5.1075406E2,8.2414345E1,4.375405E0,1.3407034E3,1.9360146E1,2.060929E3,1.9136621E2,3.6654488E1,2.2888177E2,3.865402E3,4.8754486E2,6.5892624E1,8.732174E0,6.6754005E1,1.5262874E2,5.723048E0,5.974123E0,6.6366353E0,4.711622E0,7.162986E0,1.4433205E1,3.4245054E3,5.9969654E1,1.3799678E3,1.6472012E2,2.368781E2,3.158518E1,1.7094833E2,2.40861E1,1.9046152E3,1.7365387E3,1.0299171E3,1.17975555E2,1.845529E2,1.5587226E1,4.708251E2,3.0434378E1,4.7026678E2,5.0665593E0,4.0196613E1,3.1890701E1,4.4597534E1,5.0480774E1,4.9372467E2,1.7029379E1,1.996618E1,6.2448162E1,1.3275912E3,1.3112168E1,3.22118E0,1.6138966E1,1.3594965E3,7.014325E2,1.359689E2,5.5397305E1,3.2557602E1,4.0968876E0,1.02776215E2,1.2610555E2,2.4277761E3,1.4376259E3,1.7528957E2,3.122553E2,5.5717754E1,1.0174867E1,4.4962864E0,4.2358875E0,4.821394E1,1.8540064E1,8.114018E1,7.148856E1,3.240079E0,1.1193126E1,3.1474146E3,2.7709097E2,5.607649E1,3.893167E0,3.8474997E2,9.9521783E2,4.5648506E1,1.1907162E2,1.5754466E2,7.933344E1,2.7874483E1,3.7106957E0,1.4302585E2,2.792249E1,9.240063E0,1.4846036E1,1.7385146E3,1.6610054E2,8.931091E2,8.434296E2,9.732165E2,5.6700573E1,4.485861E1,7.311694E1,6.6712715E1,1.1784019E2,1.1193563E1,4.3936634E0,3.903122E2,8.051291E1,2.376242E1,6.6719575E0,2.7919336E1,3.9713635E0,1.02537775E1,3.4343754E1,4.4786663E1,5.6941075E0,4.2183948E2,7.188521E1,1.1747379E1,5.2819986E0,3.2420523E0,1.6724129E1,5.247744E0,5.720042E1,5.4401514E2,7.835761E2,9.966724E0,3.1454434E0,1.2926133E1,3.212833E0],"tree_param":{"num_deleted":"0","num_feature":"68","num_nodes":"181","size_leaf_vector":"1"}},{"base_weights":[-4.038871E-4,-6.073784E-1,7.491603E-2,-9.737092E-1,-2.1673147E-2,-1.1324002E0,-7.73375E-1,-2.4076828E-1,5.970882E-1,-1.2701651E0,-9.470907E-1,-8.098516E-1,-5.2844215E-2,-1.4915572E-1,-1.2925757E0,1.20828636E-1,9.428403E-1,-1.3060769E0,-8.9072794E-1,-9.859118E-1,1.3872711E-1,-8.416354E-1,-3.3747604E-1,1.7221516E-1,-6.4653486E-2,-2.6336822E-1,6.3232625E-1,-1.3221163E0,-9.3928564E-1,-2.558757E-1,3.954258E-1,-1.1032419E-1,1.0034158E0,-1.4190574E0,-1.2070647E0,-9.324993E-1,5.105113E-1,-1.0151784E0,-4.1449142E-1,-1.2575802E-1,6.540517E-1,-8.587525E-1,-4.874382E-3,-4.3974924E-1,2.7580333E-1,2.7965897E-1,-1.1391935E0,-4.3613076E-1,7.1214184E-2,2.1426447E-1,7.931536E-1,-6.77329E-2,-1.069301E0,-1.0316851E0,4.9826778E-3,-1.3513755E0,-1.0286402E-1,-3.591263E-1,5.2279085E-1,5.1975155E-1,-2.492821E-1,1.0293119E0,-9.3183625E-1,-1.4254063E0,-3.846679E-1,-1.2205038E0,-6.11771E-1,-9.6242994E-1,3.1539792E-1,5.125254E-2,-4.3755346E-3,-1.0601226E0,-6.606631E-1,-5.7787293E-1,3.870044E-1,-2.5984564E-1,8.0361336E-1,7.6492536E-1,-7.2757523E-3,-9.2894053E-1,-6.742702E-1,1.560836E-1,-1.1221695E0,-5.0292176E-1,4.0315503E-1,-1.7495626E-1,5.698478E-1,4.442795E-1,-3.611409E-1,-7.4951135E-2,-4.813383E-1,-2.8828323E-1,-6.042022E-1,-6.5899687E-3,7.606745E-1,3.272914E-1,-9.9957824E-1,6.836394E-1,1.3348355E0,-9.088677E-1,-7.226328E-2,-5.989017E-2,-4.3844986E-1,-7.4198963E-3,-7.20522E-2,-3.331545E-2,-1.2123636E0,-2.4568151E-1,-8.5998154E-1,5.649785E-1,-6.7235224E-2,-7.0814476E-3,5.3818453E-2,-4.3053466E-1,4.882831E-1,1.0532933E0,-1.0231165E0,3.7183582E-3,-1.2491689E0,-7.133431E-2,-2.778016E-2,-5.739606E-2,6.0518034E-2,-6.320765E-2,-5.7443064E-2,-1.2370649E-2,-4.618399E-2,-5.2122455E-2,-3.149284E-2,4.3898802E-2,-2.480728E-2,-5.514353E-2,-3.749052E-2,1.3701475E-4,-5.0188668E-2,-4.2180978E-2,-2.0514077E-2,-1.1781977E-2,2.5919233E-2,3.9263885E-3,-2.4694461E-2,-9.1763557E-4,7.2837904E-2,5.7924587E-2,3.374896E-2,-4.9094878E-2,-4.100875E-2,-4.250478E-2,-2.9340385E-2,1.343478E-2,-7.2459675E-2,-4.6183816E-3,-7.324462E-2,-2.794011E-2,2.9379486E-3,-2.2077916E-2,2.9841507E-2,7.375748E-3,-2.6072843E-2,-1.6983546E-2,3.763562E-2,-1.0799409E-2,3.1354446E-2,-2.5097609E-2,-3.4606413E-3,-4.3443497E-2,-7.178677E-4,-1.8111475E-2,4.865352E-2,-3.2565862E-2,-3.0326275E-3,-8.115347E-3,1.1885326E-2,5.377817E-2,1.35786235E-2,-6.0578294E-2,1.8118842E-2,-6.422482E-2,-1.6250889E-3,2.8090779E-2,5.470735E-2,6.973E-2,2.5829462E-2,-1.9154793E-2,-5.5347603E-2,-3.733084E-3,-2.9704863E-2,-3.523826E-2,3.997994E-3,-6.540304E-2,-3.0955253E-2,-2.071103E-2,1.1329861E-2,-5.560708E-2,-6.977394E-3,2.0849692E-2,5.145821E-2,-3.0661602E-2,1.0919927E-2,3.1751953E-3,4.427157E-2,4.4070926E-2,6.059807E-2,-9.516162E-3,-6.9428615E-2,-7.026329E-2,-2.945732E-2],"categories":[],"categories_nodes":[],"categories_segments":[],"categories_sizes":[],"default_left":[0,0,0,0,0,0,0,0,0,0,0,0,0,0,0,0,0,0,0,0,0,0,0,0,0,0,0,0,0,0,0,0,0,0,0,0,0,0,0,0,0,0,0,0,0,0,0,0,0,0,0,0,0,0,0,0,0,0,0,0,0,0,0,0,0,0,0,0,0,0,0,0,0,0,0,0,0,0,0,0,0,0,0,0,0,0,0,0,0,0,0,0,0,0,0,0,0,0,0,0,0,0,0,0,0,0,0,0,0,0,0,0,0,0,0,0,0,0,0,0,0,0,0,0,0,0,0,0,0,0,0,0,0,0,0,0,0,0,0,0,0,0,0,0,0,0,0,0,0,0,0,0,0,0,0,0,0,0,0,0,0,0,0,0,0,0,0,0,0,0,0,0,0,0,0,0,0,0,0,0,0,0,0,0,0,0,0,0,0,0,0,0,0,0,0,0,0,0,0,0,0,0,0,0,0,0,0],"id":8,"left_children":[1,3,-1,5,7,9,11,13,15,17,19,21,23,25,27,29,31,33,35,37,39,41,43,45,-1,47,49,51,53,55,57,59,61,63,65,67,69,71,73,75,77,79,81,83,85,87,89,91,93,95,97,-1,99,101,-1,103,105,107,109,111,113,115,117,119,121,123,125,127,129,-1,-1,131,133,135,137,139,141,143,-1,145,147,149,151,153,155,157,159,161,163,-1,165,167,169,171,173,175,177,179,181,183,-1,-1,185,-1,-1,187,189,191,193,195,-1,-1,-1,197,199,201,203,-1,205,-1,-1,-1,-1,-1,-1,-1,-1,-1,-1,-1,-1,-1,-1,-1,-1,-1,-1,-1,-1,-1,-1,-1,-1,-1,-1,-1,-1,-1,-1,-1,-1,-1,-1,-1,-1,-1,-1,-1,-1,-1,-1,-1,-1,-1,-1,-1,-1,-1,-1,-1,-1,-1,-1,-1,-1,-1,-1,-1,-1,-1,-1,-1,-1,-1,-1,-1,-1,-1,-1,-1,-1,-1,-1,-1,-1,-1,-1,-1,-1,-1,-1,-1,-1,-1,-1,-1,-1],"loss_changes":[2.6999564E4,4.5324546E3,0E0,4.120957E2,1.1022274E3,1.8364453E2,1.5093726E2,5.78262E2,3.4986877E2,5.523242E1,1.3070459E2,8.17334E1,7.7976074E1,4.932412E2,3.5507202E0,9.27489E1,7.876611E1,4.0456543E1,2.1743042E1,4.9420654E1,1.4805992E1,7.3312744E1,2.1886787E1,3.352099E1,0E0,2.7874258E2,4.7107574E1,1.9376221E0,4.11475E0,6.3079918E1,5.003386E1,6.038039E0,5.93396E1,1.08654785E1,1.5300781E1,1.353598E1,3.5909352E0,4.4416504E1,1.955509E1,9.107293E0,3.4353771E0,6.424048E1,1.8949215E1,1.6065723E1,6.771126E0,2.3295467E1,3.3453083E0,7.8749695E1,8.818102E1,2.7330467E1,2.9041718E1,0E0,1.7923431E0,3.0228653E0,0E0,4.60701E0,2.5519037E1,3.9600859E0,3.5673386E1,4.8268867E0,7.737494E0,5.767749E1,5.2724266E0,9.6191406E-1,1.6279299E1,4.506836E0,4.9910183E0,8.347137E0,4.552044E0,0E0,0E0,3.2424805E1,7.355757E1,5.0070343E0,2.2337685E0,5.1197696E0,5.114388E0,1.882286E-1,0E0,1.9950684E1,2.0704285E1,1.6826445E1,4.3952866E0,8.7932205E0,3.7476833E0,2.3920374E0,5.3948507E0,2.1299229E1,1.7676811E0,0E0,1.3363904E0,1.5828313E2,3.7966858E1,5.6205315E1,2.5244232E1,1.0144539E1,4.504879E0,2.0476776E1,3.210266E0,3.7706985E0,0E0,0E0,4.5208013E-1,0E0,0E0,2.4026228E1,1.05709076E-1,5.1277447E0,2.1456432E0,2.9313232E1,0E0,0E0,0E0,5.612094E0,1.7848058E0,2.9733154E1,3.759447E0,0E0,2.2796059E-1,0E0,0E0,0E0,0E0,0E0,0E0,0E0,0E0,0E0,0E0,0E0,0E0,0E0,0E0,0E0,0E0,0E0,0E0,0E0,0E0,0E0,0E0,0E0,0E0,0E0,0E0,0E0,0E0,0E0,0E0,0E0,0E0,0E0,0E0,0E0,0E0,0E0,0E0,0E0,0E0,0E0,0E0,0E0,0E0,0E0,0E0,0E0,0E0,0E0,0E0,0E0,0E0,0E0,0E0,0E0,0E0,0E0,0E0,0E0,0E0,0E0,0E0,0E0,0E0,0E0,0E0,0E0,0E0,0E0,0E0,0E0,0E0,0E0,0E0,0E0,0E0,0E0,0E0,0E0,0E0,0E0,0E0,0E0,0E0,0E0,0E0,0E0,0E0],"parents":[2147483647,0,0,1,1,3,3,4,4,5,5,6,6,7,7,8,8,9,9,10,10,11,11,12,12,13,13,14,14,15,15,16,16,17,17,18,18,19,19,20,20,21,21,22,22,23,23,25,25,26,26,27,27,28,28,29,29,30,30,31,31,32,32,33,33,34,34,35,35,36,36,37,37,38,38,39,39,40,40,41,41,42,42,43,43,44,44,45,45,46,46,47,47,48,48,49,49,50,50,52,52,53,53,55,55,56,56,57,57,58,58,59,59,60,60,61,61,62,62,63,63,64,64,65,65,66,66,67,67,68,68,71,71,72,72,73,73,74,74,75,75,76,76,77,77,79,79,80,80,81,81,82,82,83,83,84,84,85,85,86,86,87,87,88,88,90,90,91,91,92,92,93,93,94,94,95,95,96,96,97,97,98,98,99,99,102,102,105,105,106,106,107,107,108,108,109,109,113,113,114,114,115,115,116,116,118,118],"right_children":[2,4,-1,6,8,10,12,14,16,18,20,22,24,26,28,30,32,34,36,38,40,42,44,46,-1,48,50,52,54,56,58,60,62,64,66,68,70,72,74,76,78,80,82,84,86,88,90,92,94,96,98,-1,100,102,-1,104,106,108,110,112,114,116,118,120,122,124,126,128,130,-1,-1,132,134,136,138,140,142,144,-1,146,148,150,152,154,156,158,160,162,164,-1,166,168,170,172,174,176,178,180,182,184,-1,-1,186,-1,-1,188,190,192,194,196,-1,-1,-1,198,200,202,204,-1,206,-1,-1,-1,-1,-1,-1,-1,-1,-1,-1,-1,-1,-1,-1,-1,-1,-1,-1,-1,-1,-1,-1,-1,-1,-1,-1,-1,-1,-1,-1,-1,-1,-1,-1,-1,-1,-1,-1,-1,-1,-1,-1,-1,-1,-1,-1,-1,-1,-1,-1,-1,-1,-1,-1,-1,-1,-1,-1,-1,-1,-1,-1,-1,-1,-1,-1,-1,-1,-1,-1,-1,-1,-1,-1,-1,-1,-1,-1,-1,-1,-1,-1,-1,-1,-1,-1,-1,-1],"split_conditions":[1E0,1.5E1,7.491603E-2,8E0,1E0,8.909091E-1,4E0,2E0,1.9E1,1E0,1E0,2E0,2E0,4E0,1E0,3.1751232E0,3E0,5.416667E-1,2E0,1E0,